2061 100
2196 0.092305 -0.021578 0.010920 -0.496423 -0.145817 -0.095390 -0.100533 0.110218 0.056732 -0.037450 0.165912 0.234650 0.143255 -0.118569 0.025567 -0.315516 -0.700991 -0.280942 0.060730 0.255357 -0.016707 -0.038239 0.001853 0.047055 0.011320 0.286000 0.010947 0.311316 0.100611 -0.306262 -0.146648 -0.029128 -0.033654 0.127631 -0.167512 0.020211 0.011933 -0.313498 0.130473 -0.056582 0.109031 -0.094835 0.118738 0.068531 0.002802 0.259942 -0.141577 -0.016218 -0.187243 0.202612 -0.367502 -0.173872 0.421662 0.034802 0.097011 0.169578 -0.101907 -0.229907 -0.050966 -0.201047 0.239040 0.212686 -0.051883 -0.135121 -0.206303 -0.231395 0.306721 0.118802 -0.313494 -0.081248 0.175273 -0.006652 0.326539 -0.221289 0.076885 0.367696 -0.141372 0.479318 0.145529 -0.058589 -0.128962 0.209321 0.104775 0.215285 -0.014351 -0.149870 0.326994 0.227969 0.027645 -0.096062 -0.052625 -0.153710 -0.052303 -0.063861 0.215984 0.391711 0.238602 -0.374671 0.096864 -0.133422 
143 0.165705 0.047738 0.075212 0.195022 0.020309 -0.354961 -0.075739 -0.052461 -0.018658 -0.047849 0.317925 0.118718 0.296327 -0.396074 0.166268 -0.115586 -0.411077 -0.208531 -0.284965 0.022052 -0.024799 0.294432 0.097129 0.032195 0.279674 0.130380 0.130247 0.268124 -0.091470 -0.306317 0.156367 0.114814 -0.176092 0.135360 -0.224053 0.040327 -0.039779 -0.098870 0.234586 -0.038799 0.130794 -0.031913 -0.393310 0.229006 0.052366 0.315188 -0.255789 -0.299772 -0.490872 0.193279 -0.345041 -0.106877 0.208633 0.089933 0.089221 -0.026114 -0.049433 -0.169910 0.032793 -0.135865 0.114281 0.314130 -0.285563 0.102024 -0.149602 -0.265491 0.177532 0.202061 0.225981 -0.072312 0.193970 -0.018286 0.096900 0.187707 0.217327 0.250274 -0.202359 0.143419 0.214381 -0.006624 -0.248783 0.103590 0.262187 0.031386 -0.213818 -0.063288 0.248787 0.065630 -0.376259 0.206209 0.070005 -0.174495 -0.365368 0.103387 0.286836 0.059925 -0.105470 0.051846 -0.043613 -0.190165 
465 -0.451207 -0.162249 -0.007026 0.208913 0.332762 -0.602177 -0.021703 -0.140677 -0.148820 -0.252790 0.079374 -0.204308 0.096641 0.402813 0.086624 -0.062824 0.176670 0.106109 -0.391330 0.432543 -0.394177 0.011607 -0.279703 -0.348142 0.001020 -0.003920 -0.028750 0.191959 -0.005187 -0.312973 0.254924 0.028970 -0.171248 0.493123 0.009677 -0.519073 -0.196762 0.367550 -0.039061 -0.068615 -0.112716 0.250302 0.269808 -0.393118 -0.011515 0.023563 0.211599 0.206405 -0.209697 -0.843895 -0.202403 -0.155089 0.072667 -0.356524 -0.048185 -0.411984 0.130772 -0.200136 0.206046 -0.112089 0.125249 -0.067879 -0.135241 -0.104723 0.316579 -0.349631 0.155849 -0.396726 -0.063974 0.048680 -0.109070 0.290364 0.102642 -0.302805 -0.047816 0.407771 -0.171999 0.013772 -0.195085 -0.264964 -0.079593 -0.461105 -0.180276 0.249041 0.123334 0.231974 -0.057273 -0.011074 0.349598 0.087479 0.030162 -0.142357 -0.036425 0.034059 -0.284775 -0.018964 -0.179161 -0.420377 0.013492 -0.288083 
142 -0.246593 0.205969 0.126114 -0.052856 0.218295 -0.525867 -0.018331 -0.189554 -0.221911 -0.175141 0.199025 0.070305 0.115119 0.266692 -0.146731 -0.221247 0.215110 0.143939 -0.170763 0.201458 -0.190388 0.153575 -0.078847 -0.234477 0.029290 -0.022265 0.058412 0.105820 0.211318 -0.442305 0.382275 0.231677 0.101345 0.373896 0.151249 -0.342450 -0.040520 0.238587 -0.072674 -0.017470 -0.131982 0.150328 0.091484 -0.224806 -0.005386 0.135396 0.314342 0.245694 -0.058187 -0.501763 -0.098823 -0.402548 -0.010519 -0.184984 -0.148311 -0.228230 0.147870 -0.241260 0.141399 0.098796 0.344612 0.096678 -0.001895 0.065549 0.145942 -0.210395 0.094669 -0.227559 0.043088 0.049039 -0.109558 0.119282 0.072175 -0.257817 0.269670 0.490345 0.019862 -0.121557 -0.228736 -0.133997 -0.045756 -0.536125 -0.269516 0.068889 0.096421 0.145371 0.073685 -0.227151 0.426423 0.277603 -0.119428 0.247696 -0.162017 -0.061034 -0.326195 0.133569 0.026978 -0.186025 -0.094475 -0.211615 
467 -0.145225 0.312669 0.018949 0.438290 0.403307 -0.466492 -0.262688 -0.360553 -0.216650 -0.196134 0.227296 0.017220 0.140127 0.235315 -0.297646 -0.438313 0.330037 -0.011732 -0.245488 0.368812 -0.168807 -0.218812 -0.197702 -0.278112 -0.134078 0.195383 0.100836 0.155584 0.220651 -0.423668 0.287788 0.325017 0.103642 0.371882 0.055591 -0.234841 0.003541 0.270726 0.053378 -0.195018 0.003924 0.005895 0.008893 -0.292345 0.190479 0.048994 0.488246 0.156036 -0.105831 -0.519477 -0.022295 -0.399702 0.062719 -0.116795 0.037601 -0.054769 -0.010881 -0.060214 0.181039 -0.035021 0.185152 0.341295 -0.218147 0.364381 0.269451 -0.388065 0.150386 -0.246641 0.114875 0.118477 -0.052708 0.317065 -0.153093 -0.352542 0.278948 0.185448 0.439108 0.069679 -0.194604 -0.527770 0.113696 -0.748247 -0.191904 0.377562 -0.002349 0.228897 0.186356 -0.107663 0.468202 0.379423 -0.032549 0.319840 0.140350 0.058244 -0.189471 0.223826 0.194467 -0.134984 0.169960 -0.167947 
471 -0.182081 0.057617 0.086774 0.034040 0.112200 0.076988 -0.019429 0.123008 -0.042790 -0.115829 0.027836 -0.190597 -0.102285 0.215658 -0.142466 0.101084 -0.002645 0.185199 -0.009928 0.144342 0.036645 -0.210388 -0.136846 0.039339 0.247418 0.181269 0.317973 -0.203810 -0.215126 0.195362 0.085606 -0.269658 -0.157642 0.005821 -0.313925 0.162765 0.169528 -0.116700 -0.161293 -0.164560 0.379956 0.053126 -0.126353 0.060334 -0.187581 0.350557 0.005815 -0.126760 -0.176221 0.112939 -0.256380 0.167529 0.398152 -0.322661 0.211914 -0.250984 -0.010433 -0.000446 0.335445 0.574494 -0.121316 0.109791 -0.000419 -0.003138 0.106054 -0.162828 -0.117894 -0.106309 -0.387659 0.296320 -0.081718 -0.100961 -0.027608 -0.252020 0.143169 -0.238534 -0.275616 -0.127696 -0.093743 0.217833 0.076426 0.396303 -0.308973 -0.091633 0.161565 0.051317 0.138100 0.054282 0.297269 -0.290360 -0.117256 0.030857 -0.138782 -0.098165 0.030299 0.273177 -0.078239 -0.127224 0.147656 0.208512 
74 0.190396 -0.195317 -0.331868 -0.178473 -0.074210 0.119552 -0.215967 0.015641 -0.531701 -0.013369 -0.346474 0.238603 -0.277806 -0.265499 -0.250619 -0.203199 0.626961 0.219479 0.159958 -0.200108 -0.309334 -0.022758 -0.297216 0.405661 0.049996 0.427972 0.062159 0.188110 0.496710 -0.110741 -0.077560 0.103315 -0.230869 0.116086 0.216904 0.237681 0.559325 0.218533 0.182633 0.136927 0.119022 0.059671 -0.053839 -0.424134 0.247843 0.183637 -0.572429 -0.106656 0.336334 -0.177489 0.205711 -0.133961 0.393778 -0.394197 0.153470 -0.050330 0.206007 0.156920 0.095030 0.042024 0.052654 0.164592 -0.146947 -0.092737 0.186569 -0.053416 0.192725 0.127418 0.250145 0.294004 0.053500 -0.241661 0.213429 -0.423053 0.737888 0.171634 -0.033317 -0.365939 -0.237571 0.295358 -0.074135 0.164332 0.055956 0.073606 -0.012590 0.042960 -0.011437 0.445700 -0.131193 0.404852 -0.209325 0.605834 0.081272 -0.198725 -0.036371 0.229131 -0.012960 0.299847 -0.292449 -0.581009 
2059 -0.059223 -0.014043 -0.152003 0.061229 -0.215280 -0.119318 0.235189 -0.149395 0.019927 -0.160652 0.098290 0.093859 -0.019819 0.187637 0.019944 -0.060880 -0.154158 -0.057909 0.067239 0.371020 0.033784 -0.203008 0.145345 0.166437 0.062637 0.053410 0.006944 0.144276 0.047418 0.110074 0.137905 0.177659 -0.093427 -0.137234 -0.097138 0.032746 -0.162030 -0.039071 0.189057 0.170648 -0.182393 0.013233 0.023791 0.259998 0.067528 0.113720 0.054133 0.064548 -0.020750 0.007313 -0.042168 -0.090180 -0.016018 -0.077319 0.116318 -0.305517 0.100148 -0.118754 -0.069022 -0.157460 -0.248189 -0.099145 -0.015660 -0.136603 -0.257286 0.103742 -0.251311 -0.038469 0.110770 0.103624 -0.069598 0.017507 0.165270 0.059059 -0.241355 0.181776 -0.091697 -0.365907 -0.046496 -0.132876 0.264478 -0.089621 -0.175631 -0.113768 0.185625 -0.162561 -0.141636 0.047122 0.071815 0.041342 0.258852 0.365023 0.032242 -0.000082 0.034627 0.327592 -0.152390 0.104080 -0.052542 -0.210566 
79 -0.113365 0.202470 -0.100941 -0.095676 -0.397098 -0.472028 0.379822 -0.259146 0.196521 -0.217121 0.332515 0.500572 0.079869 0.336173 -0.148269 -0.210972 0.034907 -0.002106 0.062959 0.546046 -0.079810 -0.370684 0.235560 0.253922 0.102139 0.040357 -0.052053 0.308366 0.407791 -0.037779 0.514239 0.486184 -0.027220 -0.136528 -0.098595 0.079071 -0.153866 0.084766 0.358044 0.342861 -0.319328 0.113922 -0.000994 0.444151 0.069163 0.506853 0.243390 0.373099 0.034121 0.093569 -0.167165 -0.399520 -0.001802 -0.132046 0.011738 -0.421806 0.199291 -0.355464 -0.174220 0.008728 -0.158733 -0.195958 0.085533 -0.030142 -0.410110 0.168088 -0.468297 -0.037684 0.346611 0.168837 -0.264535 -0.014356 0.276868 -0.104445 -0.188904 0.465607 0.026588 -0.776108 -0.205331 -0.215989 0.513308 -0.386526 -0.606885 -0.306312 0.558054 -0.295066 -0.076280 -0.078547 0.526582 0.230739 0.481314 0.991884 -0.192150 -0.098680 -0.004582 0.622047 -0.033778 0.255179 -0.320159 -0.612900 
1618 -0.081775 -0.114266 0.037762 -0.020506 0.119705 -0.027779 -0.072637 -0.127556 -0.048718 -0.011180 0.188610 0.340625 0.139387 0.017750 0.080576 -0.267044 -0.177736 0.235643 -0.154645 -0.069202 -0.058605 -0.100689 0.116325 0.047237 0.200712 -0.009094 -0.245658 -0.039304 0.064569 -0.184219 -0.066564 -0.036685 0.136326 0.120797 0.154763 -0.010752 0.012308 -0.208408 -0.292451 0.039906 -0.201396 -0.055816 -0.098666 0.116591 0.140975 0.157642 -0.020497 -0.047361 -0.029893 0.212530 -0.173309 0.114252 -0.210644 -0.095622 -0.036587 0.244915 0.461043 0.049793 0.072912 0.091790 -0.302310 0.036764 -0.055161 -0.173134 -0.192255 -0.402237 -0.041429 -0.023164 -0.146026 -0.014730 -0.039442 0.018196 -0.302953 0.043172 -0.058861 -0.055840 -0.130702 0.088002 -0.158577 -0.107284 -0.122480 0.077387 0.059820 0.043554 -0.105803 -0.022135 -0.159337 0.277229 -0.076962 0.149297 -0.120749 0.240544 -0.068563 -0.063999 0.215896 -0.095530 -0.105791 -0.202408 0.212045 -0.118912 
1782 -0.097303 0.013711 0.117711 -0.266313 0.121232 -0.271474 -0.027266 -0.334238 -0.001970 0.149150 0.350507 0.880351 0.457321 0.124519 0.055332 -0.499503 -0.059005 0.504874 -0.192298 -0.374214 -0.097492 -0.189855 0.313477 0.007295 0.344804 0.222639 -0.378271 -0.064090 0.381632 -0.440687 0.177658 -0.009975 0.523252 0.307121 0.422082 0.170653 0.100578 -0.266559 -0.658520 0.062807 -0.358534 0.028912 -0.139613 0.095128 0.138436 0.486755 0.105718 0.038035 0.092745 0.581533 -0.256869 -0.069820 -0.430339 -0.092166 -0.198612 0.622626 0.874548 0.026654 0.122596 0.401422 -0.298820 -0.016767 0.068244 -0.091162 -0.245906 -0.699277 -0.072382 0.054695 -0.084267 0.089948 -0.151939 -0.112290 -0.494596 -0.048686 0.137721 -0.036532 -0.002923 0.007446 -0.593624 -0.271953 -0.105294 0.059317 -0.171598 -0.034419 -0.012112 -0.029917 -0.100200 0.384660 0.057624 0.327491 -0.323987 0.746836 -0.446572 -0.190624 0.285374 -0.105698 0.059005 -0.251198 0.243496 -0.482972 
1708 0.151200 0.266484 -0.278815 0.042665 -0.040615 -0.192059 -0.276212 -0.182007 0.160305 -0.058434 -0.029690 0.427481 0.115308 -0.027025 -0.191214 -0.169446 0.221546 0.228861 0.065244 -0.407665 -0.069826 -0.092107 0.200977 -0.033722 0.132452 0.227347 0.157097 -0.293757 0.073833 0.016644 0.032166 0.083713 0.160842 0.291736 0.427811 0.391438 -0.224103 0.034131 -0.242600 -0.069840 -0.247760 0.014344 0.227457 -0.093856 0.015172 0.458899 0.006785 0.267172 0.107280 0.204399 -0.222268 -0.180629 -0.011784 0.025524 -0.144333 0.541605 0.391085 -0.338447 -0.007173 0.353596 -0.271964 -0.095754 -0.233090 -0.381904 -0.156837 -0.083176 0.001181 -0.136481 0.127473 -0.023104 -0.163553 0.029278 -0.167176 0.085008 0.186124 0.040421 -0.088408 -0.130993 -0.265621 -0.087121 -0.241360 -0.339821 0.050876 -0.217576 0.000946 -0.073188 0.218535 0.176655 0.276257 0.226484 -0.402300 0.315153 -0.130509 0.143850 0.243890 0.095011 -0.072035 -0.082205 0.332418 -0.134493 
512 0.044739 0.114143 0.296012 -0.121868 -0.026717 0.329943 -0.047711 -0.179201 -0.172136 -0.257206 0.024067 -0.212122 0.124517 -0.160239 0.231524 -0.170574 0.075082 0.010162 0.122059 -0.547565 0.126661 -0.141915 -0.287750 0.315784 -0.317253 0.014752 0.392499 0.197155 0.718647 -0.368915 -0.203401 0.172891 0.211790 -0.228108 0.029325 0.059746 0.340553 0.235885 0.026771 -0.171735 0.032987 0.031405 0.263568 -0.085803 -0.028005 0.318865 -0.164274 0.196620 0.050222 -0.105192 0.678784 -0.313042 -0.115811 -0.327921 0.022133 -0.059284 -0.022309 0.034140 0.146961 -0.008285 -0.037479 0.183005 -0.308105 0.003669 -0.375365 -0.075047 -0.156733 -0.174049 -0.138444 0.423568 -0.200839 0.008923 -0.085791 0.026894 0.699172 0.013599 0.126808 -0.224090 -0.313749 0.064055 -0.020491 -0.330439 -0.096370 0.050105 -0.223047 -0.157018 0.302893 0.112987 0.309162 -0.070906 -0.014712 0.071263 -0.656925 0.056507 0.246717 -0.031392 0.019826 0.028054 -0.262982 -0.500201 
112 -0.469796 -1.595556 2.433793 -1.036497 -0.559959 -0.689816 -0.827748 -1.675374 2.065333 3.255109 1.932708 -1.405408 -0.998724 -1.748288 0.011017 0.637823 -0.686429 0.741736 -0.599382 0.275245 -2.704411 0.831082 0.771521 0.028444 -1.656871 -1.173693 0.073635 -1.736414 2.430612 -1.064781 0.451140 -0.418336 0.187173 0.830765 0.524977 -0.245072 -0.512161 0.840358 0.582966 -1.395748 1.059224 0.259282 0.735313 -0.334334 0.045963 -1.604472 1.147181 2.968139 -0.322618 1.421473 1.046080 1.996971 2.031025 0.944996 1.844427 1.072548 0.970891 2.632708 -2.265936 1.652096 0.267695 -1.110111 0.837544 0.074071 1.271787 2.137789 0.171185 -0.097109 -0.125601 0.596679 -1.845588 -2.328558 -0.228838 -0.117206 1.345788 -0.661220 2.359805 0.926875 -1.271369 -1.880120 -0.645580 0.568962 -0.008629 -1.531592 0.889324 -0.323993 0.712857 -1.384133 0.462685 0.676749 1.002393 -0.345028 -1.426308 1.333197 0.732601 0.428259 0.813151 1.478665 -3.555705 -1.908434 
342 0.062435 -0.053701 -0.091561 -0.166405 -0.069587 -0.063775 0.250789 -0.118039 -0.162818 -0.001659 0.000997 0.194705 0.271825 0.158938 0.119904 -0.468254 0.145746 -0.124868 -0.216984 0.216705 -0.030041 0.102278 0.091821 0.242720 0.043983 0.229414 -0.130004 -0.119286 0.071570 -0.005149 0.053927 -0.006845 -0.060646 0.352781 0.038367 -0.059985 -0.234483 -0.375204 -0.199065 0.096958 -0.167415 0.124241 0.082978 0.090716 0.110682 0.091537 0.035164 0.062250 0.122091 0.258014 0.044191 0.136461 -0.434212 -0.100259 -0.318517 0.362006 0.181475 0.017906 -0.147445 0.198187 -0.232573 0.129240 -0.269369 0.026318 0.049872 -0.236549 -0.069828 -0.077591 -0.068424 0.017145 -0.207483 -0.127734 -0.230920 0.038275 0.224036 -0.360094 -0.155986 -0.113470 -0.194221 -0.029649 0.002656 -0.003281 0.114477 0.038584 0.054316 -0.068133 -0.152309 0.159154 0.099999 0.190948 -0.250160 -0.101494 -0.016804 -0.135041 0.013603 -0.047918 0.180144 -0.094934 0.209018 0.081344 
1946 -0.077011 0.097482 0.010240 -0.416230 0.018970 -0.251077 0.218004 -0.241102 -0.053378 -0.219587 0.250891 0.580194 0.175205 0.043404 -0.099555 -0.529796 0.149902 0.110283 -0.195755 -0.064505 0.009013 0.155658 0.239530 0.134524 -0.141208 0.307373 -0.102264 -0.233467 0.285198 -0.051953 0.243070 0.041599 0.228325 0.474707 -0.142434 0.161211 -0.224715 -0.481397 -0.365504 0.191527 -0.451854 0.050056 -0.141714 -0.025794 0.055431 0.230366 -0.038952 0.217473 0.288633 0.460734 0.099207 -0.080083 -0.432969 -0.104774 -0.308216 0.603693 0.461622 0.066911 -0.192112 0.313976 -0.244424 0.231151 -0.475517 -0.172291 0.137365 -0.392088 0.058961 -0.184784 0.054087 0.110159 -0.227255 -0.281866 -0.395594 0.171746 0.167993 -0.381526 -0.202432 -0.187587 -0.178018 0.097353 -0.259516 -0.202116 -0.103610 0.040364 0.102594 -0.057984 -0.271767 0.477124 0.439841 0.566736 -0.478497 0.451342 -0.370335 -0.195721 -0.122344 -0.110486 0.213717 -0.239634 0.208892 -0.206199 
341 0.086386 0.023540 -0.080133 -0.217237 -0.103120 -0.282902 0.317899 -0.164322 -0.220359 -0.127575 0.259239 0.355262 0.348571 0.109319 -0.135219 -0.528440 0.193377 -0.066070 -0.131315 0.208034 -0.140369 0.023042 0.116540 0.180124 -0.183672 0.435152 -0.018603 -0.044343 0.223580 -0.101676 0.057691 0.049572 0.318432 0.326159 0.014891 -0.028539 -0.082112 -0.243956 -0.361128 0.024642 -0.241056 0.205940 0.036671 0.246648 0.086620 0.227725 0.060626 0.068403 0.343252 0.189084 0.059632 -0.041198 -0.576076 0.105597 -0.423727 0.521888 0.322828 0.086652 -0.200097 0.315459 -0.183891 0.051503 -0.119141 0.102993 0.138294 -0.328812 -0.056355 -0.076342 -0.101018 0.025964 0.062136 -0.206245 -0.238455 0.111818 0.350674 -0.255249 -0.100582 -0.188082 -0.386531 0.204582 -0.036211 -0.212509 0.166511 -0.075051 0.047909 -0.014101 0.028887 0.186667 0.302780 0.425502 -0.431305 0.193569 -0.269317 -0.037696 -0.130629 0.059087 0.298768 0.013484 0.212960 -0.056603 
1952 0.202666 0.147280 -0.078626 -0.388894 -0.149494 -0.087349 0.205878 -0.041080 -0.054554 0.203177 -0.101833 0.184090 0.529006 0.297264 0.037978 -0.654066 0.516325 -0.109793 -0.241949 0.201788 0.030284 0.038636 0.124118 0.301302 0.195115 0.446242 -0.211046 -0.106258 0.268795 -0.099273 0.285395 0.109690 -0.058480 0.455258 0.385227 -0.100030 -0.174709 -0.440003 -0.140719 0.027030 -0.114898 0.221473 0.171418 0.223336 0.040288 0.186390 0.194923 0.011208 0.184914 0.210002 0.054558 0.084602 -0.465582 -0.143819 -0.537996 0.481487 0.050744 -0.089824 -0.249525 0.550449 0.124457 0.164858 -0.221858 0.271649 -0.146866 -0.250216 -0.164692 0.104931 0.015293 0.102001 -0.414804 -0.062578 0.096621 -0.101332 0.695375 -0.272920 0.008691 -0.531748 -0.359407 -0.184421 0.083215 -0.082087 0.016152 -0.023321 0.075990 0.007620 0.164594 -0.236674 0.136671 0.213485 -0.428965 -0.192449 -0.192258 -0.192913 0.005804 0.030776 0.436392 0.036851 0.090716 0.094385 
950 -0.488886 0.350248 0.136687 -0.209856 -0.289532 -0.193457 -0.032532 0.115717 -0.259748 -0.105699 -0.347738 0.193552 0.150269 -0.387723 0.021180 -0.095843 -0.028895 0.284690 -0.166466 0.308434 -0.089512 -0.120312 0.290624 -0.206637 -0.012855 0.347925 -0.215644 -0.018312 -0.026873 -0.199565 -0.252462 0.081062 -0.012353 0.001003 -0.505370 0.193193 -0.012557 -0.176240 0.200884 0.042589 -0.310735 0.213158 0.082352 -0.157041 -0.136883 -0.112608 0.159170 -0.376939 0.039062 0.259931 0.476282 0.078606 0.111442 0.191670 0.017891 -0.252605 0.191148 0.242530 0.010307 0.056197 0.075280 -0.068013 0.145683 0.131706 -0.188064 -0.032024 0.661723 0.190608 0.115494 0.465046 -0.206615 0.146318 -0.015306 0.256133 -0.135740 -0.054025 -0.425318 -0.285320 0.436911 0.133406 -0.342463 -0.300815 0.149982 0.243119 0.012997 -0.419232 0.105241 0.067509 0.497476 -0.093311 -0.251817 -0.242823 0.258566 0.255047 0.193046 0.046745 0.195825 -0.050385 0.088006 -0.031842 
856 -1.294646 -1.571664 2.626244 -1.259856 -0.895278 -1.617275 -0.985694 -1.396449 1.932863 3.721346 2.203636 -1.446114 -1.307732 -2.437375 -0.432928 0.601070 -1.056702 1.306197 -0.928686 1.801223 -3.495503 0.715933 1.378096 -0.672735 -1.616997 -0.718756 -0.806625 -2.223517 1.949176 -1.046463 0.394543 -0.543793 0.383271 0.952174 0.269945 -0.267235 -0.762838 0.772122 1.096110 -1.593395 0.692319 0.592244 0.468143 -0.599999 -0.315024 -1.934633 2.015327 2.661030 -0.152836 2.217140 0.753918 2.936309 2.664381 1.819716 2.332870 1.151160 1.580744 3.491774 -3.008889 2.236140 0.534072 -1.250912 1.581650 0.042524 1.454653 2.750940 1.375092 0.522464 0.335093 0.761332 -2.454792 -2.452575 -0.064898 -0.181942 0.924928 -1.031826 1.960358 0.906762 -0.513575 -2.398129 -1.125137 0.654437 0.275505 -1.305552 1.122929 -1.015806 0.525903 -2.078959 0.819716 0.929358 0.849380 -0.872156 -0.938024 1.851558 0.617823 0.702835 1.084122 1.376609 -3.959598 -1.781746 
1039 -0.130074 0.130657 0.031278 0.114602 0.082673 0.159229 0.197560 -0.062558 -0.077280 -0.333072 0.053976 0.056324 0.044097 -0.053299 0.060429 -0.313758 -0.080909 0.047009 -0.250989 -0.225312 -0.206789 0.072883 -0.203253 0.024320 -0.256410 -0.013564 0.041666 -0.092950 -0.214131 0.132984 0.073175 0.010072 -0.035388 -0.087477 -0.216419 0.086090 0.329287 -0.267486 0.008227 0.200405 0.029813 0.127160 0.287395 -0.203885 -0.258147 0.032697 0.336912 -0.145152 0.053556 0.254012 -0.199639 -0.115463 -0.133415 -0.054256 0.082779 0.091496 0.118119 -0.033357 0.015378 -0.312882 -0.165045 -0.023577 -0.129611 -0.113373 -0.018347 0.074297 0.039756 -0.070774 -0.033323 -0.227568 -0.077734 -0.216876 0.069213 -0.037739 0.200331 0.071097 -0.083812 -0.169264 0.012800 -0.009607 0.055212 -0.220612 0.200848 -0.278353 -0.039031 0.259192 -0.068892 0.158726 -0.133032 -0.014104 0.218318 -0.150161 0.141667 -0.011620 -0.188589 0.121885 0.151381 -0.036244 -0.152325 0.229360 
1288 -0.190384 0.102002 0.082494 0.206389 0.130160 0.207817 0.252849 -0.085404 -0.046395 -0.417808 0.055772 0.097337 0.129539 -0.082437 0.094785 -0.464218 -0.118291 0.071446 -0.373825 -0.341529 -0.231036 0.158617 -0.264958 0.044121 -0.360463 0.002183 0.074459 -0.166615 -0.261694 0.194965 0.105487 0.043929 -0.013644 -0.140911 -0.301831 0.102086 0.491614 -0.358266 0.004457 0.255514 0.080621 0.130744 0.408082 -0.314421 -0.392610 0.003141 0.438801 -0.184326 0.061563 0.361465 -0.287526 -0.157609 -0.102486 -0.081419 0.149898 0.179950 0.130338 -0.062845 0.007143 -0.440256 -0.218867 -0.071044 -0.156762 -0.186368 -0.059760 0.094134 0.041228 -0.061064 -0.066495 -0.286340 -0.108875 -0.282725 0.079418 -0.111904 0.318986 0.116086 -0.087771 -0.320831 0.005984 -0.030754 0.074124 -0.345594 0.260569 -0.343673 -0.066498 0.398237 -0.110450 0.189287 -0.138147 0.010929 0.254548 -0.196376 0.195670 -0.027129 -0.269022 0.171654 0.244446 -0.011053 -0.270958 0.285342 
480 -0.219303 0.058082 -0.228400 0.127073 -0.167215 0.013319 0.005321 0.310733 -0.150844 -0.105852 0.253461 -0.027996 -0.202265 -0.001678 -0.106594 -0.021228 -0.197685 -0.095551 0.152716 -0.178510 0.026628 0.374256 -0.053126 0.303856 0.134322 0.397291 0.056108 -0.129351 -0.114643 0.027323 0.193411 0.484470 0.387939 0.093962 0.099592 0.042371 -0.131634 0.524339 0.112013 0.403218 0.105816 0.088515 0.119615 -0.187119 -0.101571 0.058895 0.031829 -0.175204 0.021997 0.051473 0.214151 0.286264 -0.268116 -0.280070 -0.113046 0.252820 -0.014961 0.082346 0.229001 -0.125239 0.078364 0.045840 -0.031209 0.002975 0.331526 -0.164584 0.067563 0.053435 -0.351348 0.246065 -0.093895 -0.141904 0.196310 -0.438494 -0.035113 0.207785 -0.138499 0.362375 0.452598 -0.110010 0.108800 0.088110 -0.174057 0.096347 0.015606 -0.084363 -0.354757 0.327381 -0.261296 -0.045026 -0.459217 0.220556 0.207608 0.405551 0.035916 0.113261 -0.397971 0.530166 -0.103244 0.042811 
1297 -1.060211 -2.260981 2.557206 -0.848581 -0.922272 -1.528544 -0.980005 -1.623425 2.241487 4.186783 3.302052 -1.909165 -1.996792 -1.958452 -0.881870 0.466206 -1.351487 0.628152 -0.418319 1.244390 -3.599433 1.382780 1.250437 0.188482 -1.644132 -0.735706 -0.200285 -2.296460 1.896753 -0.579702 1.240433 -0.231915 0.986247 1.459969 0.933665 -0.510510 -1.226308 1.610016 0.847280 -1.009792 1.552311 0.591200 0.626606 -0.790517 -0.274016 -2.132674 1.652595 3.188672 -0.046976 2.094800 0.491894 3.130240 2.334653 1.208092 2.199814 1.780562 1.534365 3.448693 -2.879071 1.890506 0.420035 -1.242541 1.395079 -0.187252 2.438956 2.900810 0.831574 0.278376 -0.728134 0.626341 -2.429383 -3.052003 0.023113 -0.973192 0.953182 -0.845327 2.422086 1.695396 -0.392838 -2.521820 -0.758506 1.307545 0.049658 -2.110346 1.269346 -0.576158 -0.275468 -1.802875 -0.172124 0.988935 0.460902 -0.343582 -0.929843 2.319214 0.647129 0.723398 0.061796 2.356376 -4.229447 -1.866279 
2002 -0.608162 -0.371167 -0.107511 0.344922 0.138906 -0.202739 -0.025927 0.176524 0.095063 -0.393943 -0.270099 0.017261 0.540758 0.135757 0.151796 0.198177 0.246003 -0.258402 -0.218525 0.009623 0.242188 0.302918 0.207644 0.090514 -0.206810 -0.110127 0.120186 -0.071833 -0.228837 0.185770 -0.054782 0.245320 0.118496 -0.153285 -0.020026 -0.285865 0.280356 -0.069753 -0.158898 -0.087004 0.211244 -0.169055 0.071627 -0.131308 -0.149379 0.082267 -0.290830 -0.139792 -0.224618 0.091813 -0.080097 -0.053440 0.322797 0.219572 0.112381 0.460324 -0.144989 -0.378486 -0.539313 -0.118578 -0.065706 0.263808 0.342400 -0.250187 -0.110064 0.094337 -0.243216 0.288618 -0.406381 0.233686 0.225628 -0.005971 -0.192080 -0.216253 -0.257038 0.065549 0.209630 -0.428109 -0.097932 -0.073776 -0.091681 -0.020302 -0.080611 0.177645 -0.196625 -0.122162 -0.242415 -0.038878 0.235528 0.273369 -0.218969 0.049548 0.211759 -0.149808 0.297646 -0.162223 0.295492 0.077855 -0.140327 -0.018579 
1118 -0.221935 -0.325936 0.109938 0.270530 -0.084481 -0.280675 -0.210040 0.043977 0.064781 -0.145646 -0.382874 0.044393 0.269576 0.116725 0.078490 -0.057233 0.087242 -0.072936 -0.289018 0.137697 0.536841 0.388536 0.054756 0.038649 0.034448 -0.175524 -0.122934 -0.086407 -0.105215 0.451219 -0.018152 0.164978 -0.010039 0.043597 -0.050233 -0.014979 0.247902 -0.085529 -0.158073 0.100749 -0.069778 -0.223486 0.191430 -0.263522 -0.156141 -0.093871 -0.225070 -0.105515 -0.214920 -0.115866 0.405110 -0.145275 0.358967 0.245658 0.265158 0.121072 0.009787 -0.270976 -0.265491 0.269655 0.156202 -0.036846 -0.028750 0.104970 -0.077228 0.131293 -0.052009 0.325911 -0.470005 0.112639 0.371794 0.172333 -0.075153 0.018415 -0.217522 0.091061 0.002294 -0.078927 -0.235583 -0.052930 0.187287 -0.063785 0.159576 0.108798 -0.240030 0.015754 -0.265399 0.075237 0.329676 0.283679 -0.312202 0.083627 -0.018132 -0.066025 0.493853 0.131935 0.048936 0.084938 -0.136351 0.008608 
363 -0.231387 -0.545777 -0.159258 0.000375 0.134950 -0.276868 -0.024630 0.208789 0.143675 -0.244199 -0.000199 0.015912 0.157020 0.189187 0.018947 -0.132565 0.057901 -0.293614 0.257466 -0.098803 0.263441 0.018106 0.334751 0.192190 -0.095150 -0.197073 0.495090 -0.236968 0.337788 0.474747 -0.015174 0.197528 -0.123367 -0.144133 0.084384 -0.109325 0.306409 -0.001216 -0.111368 -0.015802 0.511148 0.545707 0.083252 -0.475548 -0.044748 -0.219203 0.085987 -0.087273 -0.257328 -0.089098 -0.193048 -0.092794 -0.336008 0.188984 0.211299 -0.071118 0.039700 0.087702 0.057733 0.273246 -0.064077 0.191318 -0.022663 0.032419 -0.074384 -0.149428 -0.024193 0.447350 0.004438 -0.394244 0.039572 -0.283695 0.015134 -0.098473 -0.506238 0.154642 -0.133731 -0.365287 0.268086 0.055789 0.030420 -0.100580 0.188143 0.322439 -0.194518 -0.055711 0.144157 -0.126358 0.103076 0.322756 -0.140824 0.204081 0.203793 -0.161097 0.549773 -0.207366 0.264979 -0.256278 0.015723 -0.066938 
1977 -0.328682 -0.174239 -0.059641 0.231935 -0.442481 0.277577 -0.014160 -0.173134 -0.092241 -0.308151 -0.460792 0.055603 0.184293 0.233264 -0.225984 0.126817 0.108560 0.040159 -0.069878 -0.002842 -0.274402 0.152592 -0.070771 -0.029212 -0.278210 -0.133738 -0.075148 -0.150188 -0.047838 0.083198 -0.131582 -0.113601 0.080588 -0.505893 -0.010544 -0.465161 -0.169057 0.275377 -0.135206 -0.158096 0.199892 -0.196466 -0.109297 -0.049711 -0.010196 0.156258 -0.314364 -0.423210 -0.090218 0.135203 -0.277464 -0.230468 0.371018 0.028536 -0.223779 0.291190 -0.107633 -0.131177 -0.609306 -0.172213 0.128813 0.431643 0.091317 -0.163751 0.154750 -0.064145 -0.537539 0.267834 -0.219619 0.497807 0.226515 -0.036602 -0.006608 -0.330111 -0.294758 -0.079329 -0.168642 -0.254515 0.014630 -0.354004 -0.365964 -0.238095 -0.049149 -0.026621 -0.379899 -0.157865 -0.049669 0.007685 0.007817 0.340947 -0.235323 -0.101022 -0.070656 -0.115661 -0.103310 -0.007874 0.173232 0.183727 0.103430 -0.066681 
1124 -0.227328 -0.182255 -0.105732 0.400965 -0.085620 0.210943 0.159809 0.056518 -0.220599 0.094980 -0.307096 0.136671 0.325959 -0.285927 -0.050272 0.615622 0.120586 -0.203680 -0.104277 0.313482 0.187087 0.117070 -0.393656 0.032028 -0.207400 -0.093292 0.007397 -0.402116 -0.257487 -0.103188 -0.066953 -0.023727 0.247011 -0.298789 -0.287155 -0.256413 0.019448 -0.068654 -0.299675 -0.100471 -0.030647 -0.338461 -0.212621 -0.127623 0.115760 0.099080 -0.506850 0.166305 0.230570 0.247613 -0.283851 -0.147041 0.196227 0.107368 -0.194258 0.185976 0.022255 -0.420015 -0.329632 0.032611 0.218129 0.265476 -0.043267 -0.140800 -0.284132 -0.133837 -0.363245 0.170185 -0.521736 0.605585 0.258891 -0.033757 0.061668 -0.305367 -0.463927 0.050216 0.094950 -0.265499 -0.119038 -0.210714 -0.142765 -0.415908 -0.033684 0.031419 -0.281567 0.046571 -0.044461 -0.197622 0.079768 0.459021 -0.260332 -0.226348 0.139268 0.202985 -0.074138 0.009566 0.090953 0.041573 -0.239568 -0.155393 
364 -0.262096 0.429681 0.342823 -0.223789 0.230308 -0.335064 0.265832 -0.130506 -0.182597 -0.512472 0.024487 -0.068925 -0.073859 -0.045582 0.369570 0.183211 0.397138 0.229764 -0.239770 -0.167374 0.050583 -0.021005 0.717079 0.332610 -0.134913 0.082405 0.415686 0.423125 -0.141940 0.584315 -0.374524 0.164167 0.191412 0.225374 0.064906 0.192290 0.126122 0.167684 -0.198323 -0.032243 -0.088155 0.041339 0.237544 0.167597 0.016822 0.069340 -0.231851 -0.331195 0.280327 -0.151542 -0.304968 0.578832 0.079766 0.430067 -0.086138 0.084814 -0.343209 -0.709985 -0.030216 -0.200153 0.114211 0.291800 0.387317 -0.256798 0.114154 0.006007 -0.028953 0.177388 -0.097926 0.103320 -0.022793 -0.060445 -0.167649 -0.083455 0.220204 -0.126485 0.798095 -0.155910 -0.186615 -0.151846 -0.417401 0.267107 -0.010894 0.568116 0.088474 -0.183486 -0.463094 -0.101482 -0.114344 0.001169 0.275044 0.081774 0.087760 0.008995 0.252023 0.240805 -0.116122 -0.421773 -0.233480 0.065424 
367 -0.189533 -0.482135 -0.020242 0.302081 0.366163 -0.080278 -0.121570 0.642651 0.063783 0.371463 -0.113250 -0.019213 0.201858 0.135582 -0.030249 0.193454 0.157283 -0.691647 0.111791 0.069207 0.521301 0.237640 -0.153268 -0.047560 0.135833 0.257748 0.297319 0.002955 -0.091874 -0.602951 0.053594 0.096833 0.282766 0.197288 0.176946 -0.033774 -0.088383 -0.353453 -0.085767 -0.155573 -0.088538 -0.401716 -0.268361 0.389482 -0.099644 0.013380 -0.516451 0.244763 0.057620 0.281815 0.254628 0.108498 0.240075 0.385961 0.020836 0.045009 -0.223607 -0.243634 0.176327 0.063824 -0.338693 -0.299718 0.244253 -0.342868 0.054859 0.162978 0.062699 -0.196787 -0.035087 0.253178 -0.126288 0.369295 -0.287204 -0.327422 -0.107231 0.000731 -0.054234 -0.405573 -0.035877 0.382787 -0.079576 -0.261123 -0.132296 0.324390 -0.505893 0.000025 -0.250158 -0.077779 0.162571 0.205605 0.166481 0.032193 0.282534 0.148741 -0.100338 0.188686 0.221449 -0.090411 -0.267361 -0.124091 
1128 -0.449814 -0.213472 -0.124428 0.296421 0.202260 0.251352 0.181922 -0.018535 0.067328 -0.034766 0.082995 0.159292 0.554949 -0.025727 0.106715 -0.193542 -0.131466 0.023787 -0.390768 -0.208890 0.056968 0.383684 -0.125912 0.056067 -0.133977 -0.229186 0.051188 -0.379713 -0.193624 0.424899 -0.071731 0.029008 -0.034178 -0.553202 -0.343499 -0.397621 0.058385 0.004586 0.306589 -0.044890 0.110667 -0.146625 0.247364 -0.238170 -0.681078 -0.213879 0.084893 -0.420467 0.113168 0.325409 -0.426099 -0.463307 0.410666 -0.243355 -0.038505 0.553151 0.056166 -0.159043 -0.404878 -0.366179 -0.248487 0.302262 0.318203 -0.374884 -0.082268 -0.198065 0.038068 -0.059996 -0.148551 -0.026170 0.006011 -0.143663 0.071702 -0.205378 0.255886 0.107222 0.312000 -0.650692 0.075347 0.027271 -0.044038 -0.433954 0.038485 -0.075100 0.090409 0.236292 0.009708 0.070963 0.154219 0.213916 -0.257238 0.138862 0.119205 -0.167408 -0.160159 -0.061147 0.202836 0.129725 -0.047088 0.099012 
1129 -0.354212 -0.220341 -0.508343 0.188467 -0.204526 0.142880 0.047063 0.032865 -0.262901 -0.198886 -0.328404 0.253676 0.359034 -0.037347 -0.110881 0.370603 0.057922 -0.076064 -0.261714 0.073365 -0.096127 0.032134 -0.109664 -0.361056 -0.092687 -0.197665 0.145877 -0.313948 -0.129902 0.035193 -0.044617 0.149548 -0.082009 -0.089885 -0.157100 -0.093190 0.052173 0.144711 -0.198294 -0.179098 0.141686 0.029662 -0.344086 -0.101555 0.080872 0.106091 -0.189946 0.045797 0.180856 0.158002 -0.174654 -0.107536 0.145282 -0.116539 0.052064 0.505644 -0.293804 -0.186982 -0.349521 -0.079427 -0.025905 0.225078 0.158334 -0.361301 -0.289046 0.078794 -0.450702 -0.014288 -0.408028 0.286870 0.145876 0.077122 0.017967 0.064949 -0.046191 0.093709 -0.015320 -0.136551 0.025654 -0.266135 -0.096948 -0.169886 -0.152858 -0.117594 -0.425713 -0.157990 0.058736 0.018644 0.087548 0.345659 -0.152221 -0.269753 0.263067 0.006191 0.026146 0.018657 0.009534 0.028114 -0.188388 0.011807 
1981 -0.569703 -0.182706 -0.278549 -0.112589 0.228501 -0.426742 -0.355377 0.376249 0.200866 -0.623042 0.218143 -0.039570 0.429255 -0.106077 0.243945 0.060574 0.395550 -0.054125 0.063966 -0.296034 0.039378 -0.212259 -0.249374 0.120074 -0.306693 0.252530 0.198219 -0.132720 -0.293742 -0.142908 0.076710 0.245706 0.476846 0.053398 0.333909 -0.232651 0.169616 -0.103728 0.018321 -0.277737 -0.123046 -0.317717 -0.333896 0.096034 -0.320254 0.138572 0.029721 -0.111323 -0.136710 -0.180604 0.582621 -0.643730 0.522754 0.154182 -0.432550 0.306128 0.213973 -0.222157 -0.695347 0.090437 0.139271 0.264103 0.323666 0.263649 0.007832 -0.040367 -0.376653 -0.073693 -0.081899 -0.044208 0.227981 -0.182861 -0.158580 0.286859 -0.155068 0.369572 0.288779 -0.449737 -0.415955 -0.031023 0.096608 0.039084 0.392567 0.280868 0.485822 -0.384384 0.081000 0.004132 -0.046493 0.023147 -0.659023 0.400178 -0.152887 -0.304867 0.141991 0.334902 0.347230 0.322868 -0.257261 -0.071119 
1132 -0.281640 0.117331 -0.083779 0.040214 -0.296264 0.107929 -0.058018 -0.318854 -0.198662 -0.466545 -0.226315 0.311708 0.359578 0.084313 -0.209371 -0.030165 0.164904 0.250292 -0.325070 -0.002468 -0.299667 0.154476 -0.079964 -0.315561 -0.189412 -0.172002 -0.048086 -0.152417 0.044841 0.181773 -0.022592 0.124510 0.211878 -0.587199 -0.042721 -0.380859 0.027066 0.354543 -0.131822 -0.322064 0.169570 -0.133404 0.081808 -0.226096 -0.288107 0.164249 -0.139312 -0.430604 0.195826 0.201369 -0.371692 -0.566483 0.236438 -0.039857 -0.177400 0.749198 -0.169007 -0.064736 -0.789262 -0.281738 0.066061 0.476763 0.247905 -0.078509 0.050583 -0.080535 -0.545750 0.269769 -0.073653 0.452717 0.238520 -0.154119 0.210512 -0.281334 0.160737 -0.037705 -0.065115 -0.433139 -0.116090 -0.264763 -0.153831 -0.156381 -0.301789 -0.175850 -0.101910 -0.245208 0.339236 0.049373 0.246261 0.356132 -0.550528 0.200652 -0.426192 -0.282440 -0.298749 -0.054683 0.132464 0.295961 -0.010905 -0.192326 
554 0.277559 0.332658 0.200128 -0.195385 -0.041110 -0.073956 -0.267955 0.178026 0.300441 -0.008166 0.194331 -0.136268 0.116038 -0.162972 0.097595 0.148041 -0.244964 -0.005295 -0.039879 0.144134 0.018564 -0.133253 0.053847 0.021781 0.189720 -0.130162 -0.036825 0.154104 0.146917 0.144248 -0.026886 -0.015024 0.046187 0.012132 0.009759 0.027332 0.061213 -0.125019 -0.061609 0.050614 0.225416 -0.018165 0.075845 -0.107186 -0.014390 -0.087845 -0.001614 -0.121138 -0.055763 -0.236838 -0.034364 0.130894 -0.098909 -0.216757 -0.066306 0.108174 -0.087423 -0.100683 -0.016213 -0.097445 0.082833 0.305718 -0.220633 -0.042970 0.007518 0.030146 -0.164480 -0.268163 -0.076693 -0.028649 -0.118781 0.188957 -0.129703 0.198432 -0.246351 -0.114287 -0.117755 -0.223260 -0.145747 0.254055 -0.074882 -0.158483 -0.072844 -0.228502 -0.274431 -0.199030 -0.163193 0.184942 -0.032087 0.085576 -0.266013 0.163541 0.247653 0.146357 -0.317043 0.027260 0.241128 0.044923 -0.091881 0.093950 
60 0.292557 0.441048 0.250342 -0.320544 -0.093205 -0.100440 -0.344652 0.187511 0.422323 -0.037845 0.259186 -0.212294 0.126358 -0.271280 0.073150 0.170938 -0.364544 -0.012436 -0.090522 0.182608 -0.006866 -0.192807 0.020251 0.054762 0.279798 -0.189633 -0.025548 0.140302 0.190869 0.186983 -0.028243 0.003470 -0.009970 0.002565 0.044985 -0.004194 0.047257 -0.182722 -0.040900 0.048920 0.349910 -0.117560 0.112686 -0.121371 -0.001807 -0.156749 0.002334 -0.148584 -0.113068 -0.364785 -0.022506 0.179074 -0.122634 -0.248320 -0.059458 0.117989 -0.191978 -0.189324 0.002820 -0.165810 0.111958 0.371197 -0.299285 -0.035614 0.021892 0.049615 -0.187451 -0.349528 -0.132706 -0.045985 -0.167799 0.219170 -0.197860 0.315378 -0.357040 -0.204697 -0.146122 -0.294322 -0.141663 0.349411 -0.061617 -0.202961 -0.130397 -0.275309 -0.337120 -0.228411 -0.264302 0.208576 -0.054629 0.152908 -0.341910 0.192496 0.316315 0.239956 -0.422025 0.006238 0.342015 0.037560 -0.114606 0.104400 
63 0.599612 0.314686 0.243513 -0.028832 0.141302 -0.054913 -0.298974 0.417769 0.281291 0.271728 0.207651 -0.113256 0.265803 0.036122 0.476959 0.334895 -0.070729 -0.083586 0.059629 0.379526 0.041762 -0.067899 0.288671 -0.052230 -0.001686 -0.162343 -0.099783 0.395698 0.051380 0.264234 -0.132911 -0.209814 0.201632 -0.043994 -0.136410 0.163477 0.295367 0.000372 -0.060910 0.078408 0.045223 0.312838 -0.061086 -0.305150 -0.038212 -0.116324 0.028606 -0.117343 -0.111031 -0.118407 -0.049902 0.217576 -0.105931 -0.450143 -0.033876 0.183146 0.202557 0.112540 -0.059404 0.020779 0.242993 0.573838 -0.152033 -0.165095 0.029125 0.034867 -0.229029 -0.238031 0.099821 -0.070700 -0.099348 0.417762 -0.097797 -0.022301 -0.136114 0.190145 -0.274498 -0.166248 -0.440553 0.074470 -0.252519 -0.193895 0.112940 -0.226299 -0.472317 -0.374327 -0.054973 0.321333 0.022956 -0.154921 -0.115180 0.309244 0.360036 0.051213 -0.465550 0.250822 0.179558 0.305943 -0.085819 0.146677 
1143 0.146817 -0.108319 -0.077702 -0.103161 0.129767 -0.081970 0.121051 0.090905 -0.289609 0.096787 -0.134150 0.219258 0.005516 -0.080245 -0.249644 -0.076164 -0.263682 -0.186557 0.231033 -0.267928 -0.191414 -0.057354 -0.056800 -0.037420 -0.195323 -0.064463 0.003068 -0.177288 -0.033825 0.205652 0.003840 0.206711 0.122883 0.212560 -0.057402 0.032478 0.042354 0.029479 0.081819 -0.083481 -0.036654 -0.017983 0.026564 0.118274 0.057546 -0.055202 -0.099435 -0.212700 -0.080644 0.021398 -0.058410 0.038838 -0.107927 -0.012575 0.004304 -0.072462 0.391349 -0.115056 -0.075493 0.090141 -0.050798 0.246562 -0.305748 0.138881 -0.010113 -0.027788 -0.112654 -0.340278 -0.273677 0.039836 -0.115381 -0.053147 -0.107860 0.093784 -0.082550 0.073851 -0.055814 -0.182962 0.114024 -0.191567 -0.030910 -0.070777 -0.206371 0.038100 -0.018389 -0.235089 -0.138866 0.022694 -0.047001 -0.045711 0.129918 -0.011021 -0.009335 0.047160 0.010734 -0.192622 -0.176704 -0.209645 -0.107479 0.034732 
965 -0.126899 -2.707094 2.700200 -1.118721 -0.386085 -1.680253 -0.704840 -1.472983 1.757823 4.557352 2.456378 -0.822794 -1.547670 -2.123160 -1.477437 0.478430 -1.938294 0.642870 -0.282750 0.558115 -4.084866 0.707695 1.037863 -0.594847 -2.229818 -1.635518 -0.396835 -2.708128 2.094793 -0.256855 0.843701 -0.157531 0.206735 1.729273 0.998125 -0.334582 -1.044968 0.807985 1.227775 -1.691322 1.073303 0.155004 0.592007 -0.046999 0.385025 -2.426737 1.532825 2.697249 -0.532098 2.211442 0.135794 3.154901 2.554239 1.438988 2.271682 1.122789 2.731067 2.699907 -3.436235 2.239416 0.195691 -0.546114 0.679719 0.307978 1.868592 2.869340 0.342349 -0.808726 -1.034911 0.589355 -2.568440 -2.924967 -0.637173 -0.093686 0.685088 -0.679751 2.522651 0.635170 -0.766501 -3.124122 -1.142632 0.885740 -0.719215 -2.024218 1.253315 -1.064854 -0.000953 -2.085143 0.056046 1.104142 1.455486 -0.449469 -1.574271 1.740375 0.685606 -0.062238 0.350874 1.117953 -4.578456 -1.786747 
250 0.015124 -0.320930 0.095032 0.254004 0.143649 -0.182607 -0.206439 -0.224608 -0.029766 -0.079251 -0.168539 -0.303255 0.309386 0.245009 -0.254763 0.205378 0.021850 -0.152423 -0.288855 0.088581 -0.071974 -0.438206 -0.033420 -0.381636 -0.073912 0.232824 0.144718 0.259823 -0.368144 0.018580 0.041397 -0.002175 0.161588 -0.086720 -0.162801 -0.128034 -0.136871 -0.040518 -0.075810 0.175189 -0.169357 -0.004264 0.090953 -0.126595 -0.178194 -0.067239 -0.018317 0.045119 0.426859 -0.127387 0.127092 -0.126943 0.048789 -0.307910 0.215409 0.137739 -0.347323 0.030437 0.054646 -0.221162 0.096716 -0.352676 -0.550832 0.082955 0.312524 -0.381658 0.249474 -0.274356 0.067057 -0.405722 -0.279795 0.194137 0.303695 -0.044612 -0.200827 -0.123397 0.115310 -0.134045 -0.123638 -0.508419 -0.295678 0.122982 0.102568 0.187165 0.087551 -0.158365 -0.004098 0.236900 -0.392653 -0.063039 0.014528 0.062572 0.095818 0.155908 0.249436 -0.345835 0.143093 -0.065325 0.243897 -0.441184 
1994 -0.521715 -3.031822 3.655840 -0.801208 -0.485595 -1.625114 -1.499610 -2.136129 2.633074 4.878155 2.871960 -2.676378 -1.212774 -2.238243 -1.222878 0.908146 -1.252627 1.016382 -1.325687 1.719394 -3.990015 0.452819 1.403292 -0.833142 -2.176407 -1.197561 -0.206541 -2.364355 1.744955 -0.864405 0.619171 -0.732480 0.453146 1.167691 0.839632 -0.691531 -1.448983 0.896127 1.117198 -1.842488 1.180209 0.348604 0.425406 -1.055277 -0.216900 -2.963551 2.057381 3.938736 0.565453 2.298342 0.367732 3.102304 3.248041 1.409295 3.194510 1.944646 1.064371 3.804332 -3.697239 1.861782 0.475025 -2.082676 0.850871 0.053302 2.896666 2.990570 0.947309 0.119940 0.020651 -0.226842 -3.208726 -3.015791 0.365175 -0.479356 1.106970 -1.280269 3.155145 1.397923 -1.392558 -3.868223 -1.447510 1.567811 0.378282 -2.315086 1.300987 -1.057673 0.406549 -2.240248 -0.499767 1.220919 1.404591 -0.423158 -1.096701 1.871289 1.490807 0.376048 1.151666 1.988527 -4.106791 -2.908127 
2233 0.377104 -0.148252 -0.034632 0.114611 -0.393888 0.082346 0.153800 -0.055491 0.161448 0.123918 -0.136786 -0.168460 0.012691 -0.080091 -0.226135 0.261260 -0.193831 0.188914 0.030415 0.011055 0.037098 -0.269552 0.001305 0.056015 -0.043009 -0.228389 -0.112833 0.142637 -0.327947 0.143347 0.254328 0.310325 -0.072650 0.194988 0.132120 -0.372491 0.115329 -0.104220 0.092615 -0.504584 0.022897 -0.013046 -0.199626 -0.193352 -0.179116 0.283725 0.149934 0.104818 0.085690 0.126759 0.164224 0.044571 -0.356162 0.180823 0.063212 -0.105167 -0.007071 0.017451 -0.000459 -0.303171 -0.080766 0.048630 -0.084149 -0.163738 0.090122 -0.099132 0.020026 0.151466 0.025728 0.260298 -0.096378 0.145711 -0.083985 -0.044190 0.297265 0.308756 -0.111410 -0.029159 -0.020502 0.169445 -0.240097 0.009399 0.079900 0.285229 0.233918 0.191118 -0.079978 0.126205 0.101174 0.004939 -0.141134 0.285511 -0.091436 -0.009926 0.182899 0.041931 0.109683 -0.204683 -0.092957 0.392077 
2222 -0.100166 -3.313252 3.348285 -0.893765 -1.656088 -1.684720 -1.274929 -2.196222 3.425549 5.413703 3.130801 -2.670858 -2.106434 -2.783912 -1.128509 1.157703 -1.863855 1.630206 -1.165154 1.883416 -4.256956 0.737292 1.583513 -0.220186 -2.387638 -2.288894 -0.594196 -2.617508 1.922064 -0.630391 1.280967 -0.421492 -0.021337 1.845653 1.502024 -1.410352 -0.772952 0.568566 1.417883 -3.249287 1.430217 0.483862 -0.056709 -1.146292 -0.348487 -2.284325 2.499331 4.122136 -0.040331 2.573884 0.762381 3.701501 2.563289 2.172300 3.081735 1.562916 1.530912 4.127204 -4.195068 1.681290 -0.089593 -1.558786 1.697554 -0.506601 2.849796 3.550207 0.581165 0.508990 -0.225435 0.903896 -3.041478 -3.109262 -0.550551 -0.722426 1.888969 -0.760654 2.936954 1.395022 -1.183120 -2.549894 -1.459354 1.335098 0.302815 -1.987167 2.179968 -0.357349 0.557649 -2.258394 0.328003 1.317191 1.317823 -0.210210 -1.384437 2.101341 1.528203 1.056514 0.548585 1.562719 -5.120153 -1.747073 
1585 0.014814 0.283516 -0.087016 0.354500 0.023264 -0.198140 -0.132910 -0.006617 0.039988 0.029825 0.296644 -0.066059 0.000247 0.204375 -0.345057 -0.116629 0.283611 -0.275485 0.027827 0.192638 -0.220081 0.008759 -0.526069 0.129798 0.122985 -0.114410 -0.518217 -0.324877 0.292265 0.042787 -0.222319 0.025099 0.437893 -0.063557 0.112421 0.218852 0.080461 -0.278231 -0.073347 -0.240463 -0.092770 -0.155246 0.243651 -0.174862 0.002536 0.357221 -0.078985 -0.380412 0.032514 -0.077819 -0.285197 0.118907 -0.147894 -0.042761 0.114963 -0.232050 -0.712495 0.245011 0.138023 -0.141388 0.238412 0.219526 0.028226 -0.313701 0.007768 0.009876 0.214438 -0.063342 -0.377399 0.066717 -0.414228 0.049291 -0.082826 0.632225 -0.105041 0.133559 0.006630 -0.086292 0.239710 0.277231 -0.032553 0.018122 0.224308 -0.337913 0.081292 -0.145569 -0.301003 -0.273197 -0.120645 0.022084 -0.124059 0.158032 -0.041182 -0.509419 0.242356 0.114410 -0.102551 -0.186334 -0.030684 -0.218965 
1586 0.027782 0.227403 -0.117588 0.399915 0.051576 -0.161830 -0.083943 0.008161 -0.018015 0.064076 0.252863 -0.018368 0.011287 0.260401 -0.268614 -0.104052 0.310870 -0.270260 0.053194 0.185965 -0.196486 0.053263 -0.449166 0.107851 0.057015 -0.073767 -0.496200 -0.289063 0.246458 0.035279 -0.205382 0.006265 0.447527 -0.063140 0.051487 0.229317 0.081714 -0.208083 -0.084879 -0.249706 -0.172204 -0.096471 0.216168 -0.184133 -0.006197 0.361292 -0.056809 -0.359203 0.035221 -0.001032 -0.253271 0.094423 -0.153408 -0.025980 0.107778 -0.216865 -0.620927 0.263601 0.119044 -0.110701 0.245281 0.205811 0.075691 -0.293029 -0.010666 0.007127 0.215372 -0.042602 -0.299040 0.056197 -0.368684 0.059651 -0.057790 0.513790 -0.043455 0.156787 -0.008968 -0.032216 0.221636 0.192569 -0.032425 0.009614 0.260138 -0.271128 0.065783 -0.135124 -0.243455 -0.262008 -0.103290 -0.052998 -0.052615 0.126403 -0.057898 -0.531951 0.262856 0.105651 -0.125218 -0.143641 -0.000453 -0.173936 
1595 -0.897193 -2.223827 3.183192 -0.390739 -0.786260 -1.780797 -1.658930 -1.828421 2.856541 4.864966 3.472761 -2.190120 -1.739188 -2.198618 -1.070966 0.449045 -0.757511 0.759080 -0.781360 1.977843 -4.538013 1.036922 0.645178 -0.109188 -1.938919 -1.845105 -1.283176 -3.105818 2.626495 -0.890599 0.385723 -0.809088 0.674276 1.230290 1.282155 -0.266934 -0.849225 0.461175 1.076961 -2.216151 1.043159 0.387093 0.559727 -0.983373 -0.241188 -2.065646 1.903513 3.183868 -0.141254 2.281444 -0.305276 3.590402 2.837912 1.724629 2.901934 1.224002 0.559421 4.051115 -3.536026 1.994932 0.723197 -1.264283 1.740065 -0.465703 2.167018 3.333961 0.954310 0.044456 -0.662415 0.613155 -3.461562 -3.429600 -0.396490 0.219065 0.844972 -1.018521 2.950591 1.260136 -0.874382 -2.492562 -1.024643 1.400606 0.424095 -2.809893 1.616563 -0.844923 0.133173 -3.162976 0.124233 1.125634 1.040853 -0.532167 -1.368133 1.300550 1.332054 1.162401 0.397027 1.410383 -4.647090 -2.579403 
304 0.204073 -0.031609 -0.304630 0.112328 -0.284634 0.196385 -0.189929 0.056152 0.118400 -0.413562 0.027417 0.059438 0.445549 0.018924 0.279525 -0.164158 0.182739 0.274353 0.291900 -0.016952 -0.037517 0.045103 -0.044865 0.046846 0.359496 -0.250962 0.286789 0.103541 -0.124798 0.036365 -0.291386 -0.399729 0.396191 0.255414 -0.113673 0.286391 0.168663 -0.173596 0.335054 -0.249475 0.106506 0.002592 -0.249655 0.435654 0.308899 -0.172363 0.210253 0.010924 -0.050759 0.256270 -0.059202 -0.286147 -0.178516 -0.097595 0.152563 -0.300192 0.166954 -0.092548 0.020692 -0.227925 0.164344 -0.037663 0.119508 -0.086240 0.452324 0.359065 0.329399 0.170438 -0.298700 -0.099364 -0.245577 0.120515 0.449969 -0.169466 -0.003479 -0.136247 0.000872 0.013290 -0.188164 -0.169028 0.200794 -0.139958 -0.088219 0.150204 -0.029366 0.016369 -0.305042 -0.036338 0.116819 0.282336 -0.302113 -0.083449 -0.163707 0.099309 -0.117000 -0.402158 -0.190784 -0.124495 0.038009 -0.070483 
498 -0.061877 -0.066963 -0.061649 -0.329178 0.152132 -0.111902 -0.341355 0.212678 -0.137803 0.042443 0.405703 -0.127587 0.075513 -0.019840 -0.173417 0.185154 0.464333 0.097014 0.634807 -0.297689 0.110860 -0.259910 0.098045 -0.108923 -0.128056 0.245226 -0.036193 0.111966 -0.054043 -0.212017 0.194649 0.309268 0.090996 0.144941 0.334421 -0.362766 -0.115149 -0.038869 -0.104835 -0.384014 -0.044254 -0.066610 -0.076199 0.356650 -0.107384 0.088827 -0.301221 0.040383 0.230405 0.038790 0.222845 -0.513549 -0.218455 0.052838 -0.024102 0.039759 0.212340 -0.339238 -0.159619 0.293656 0.376330 0.393117 0.305792 0.252947 0.039817 -0.170180 0.172923 -0.299597 0.030050 -0.005693 0.189760 -0.057931 -0.005882 0.411117 -0.029117 -0.198068 -0.105478 -0.193859 -0.017134 -0.063538 0.045709 0.272622 -0.076959 0.189625 0.167327 -0.528884 0.416456 -0.099121 0.173709 0.133345 -0.274630 0.472587 -0.288903 -0.092669 -0.229174 0.313503 -0.262181 0.201761 0.088504 -0.343036 
938 -0.067051 -0.084461 0.124356 -0.156013 0.139402 0.152433 -0.034513 0.115390 -0.180189 -0.088058 0.168407 -0.207547 -0.007364 0.044220 0.029222 0.303527 0.210492 0.105238 0.566733 -0.304049 -0.024002 -0.170277 -0.000294 -0.120437 -0.269640 0.013824 -0.150326 -0.003385 -0.086010 0.013742 0.226284 0.058591 -0.209330 0.047764 0.372748 -0.356068 0.120085 -0.222008 -0.165597 -0.150363 0.004731 -0.043755 0.126339 0.114187 0.094206 0.083187 -0.020667 -0.205884 0.122080 0.086072 -0.075806 -0.209688 -0.100647 -0.008480 0.278623 0.047820 0.316249 -0.284962 -0.061579 -0.115429 0.230461 0.027864 0.179122 0.138857 -0.025950 -0.171689 0.310795 -0.139679 -0.242483 -0.172175 0.116302 0.018395 -0.056320 0.443609 -0.123313 -0.289944 -0.319047 -0.083895 0.215755 -0.232816 0.070409 0.202736 0.031212 0.225083 -0.022286 -0.417031 0.156052 0.151307 0.153460 0.068686 0.026868 0.077788 -0.038880 0.028350 -0.221161 0.260677 -0.352951 0.242265 -0.020703 -0.176542 
1388 0.243277 -0.137474 -0.034083 0.199395 -0.604639 -0.270644 0.246455 -0.100535 -0.139973 -0.241440 0.167903 -0.214495 0.117900 -0.088371 0.135975 -0.091012 0.025919 -0.033037 0.113849 -0.403957 0.113230 -0.221327 -0.036473 0.175626 -0.110173 -0.266289 -0.244744 0.140492 0.283147 -0.216729 -0.093741 0.036017 -0.074401 -0.189390 0.109994 -0.082921 -0.069589 0.330104 -0.016527 0.158647 -0.016523 0.199895 0.274126 0.077631 -0.155469 -0.285160 0.330761 -0.428728 0.201376 -0.027729 0.205171 -0.188843 0.263849 -0.157166 -0.187731 -0.118944 0.149989 0.012727 0.046077 0.012982 -0.258671 0.146749 -0.304101 -0.094685 -0.307300 0.065497 0.084261 -0.073202 0.049025 -0.410236 -0.195166 0.134301 -0.139360 -0.006687 -0.056703 0.029594 0.190747 0.234281 -0.001835 0.216780 -0.203061 0.291088 -0.119827 0.187079 -0.199630 -0.187274 -0.092670 -0.095566 0.213253 -0.246957 -0.161198 -0.292839 -0.414626 -0.099551 -0.056978 0.104567 -0.125134 0.020600 0.108942 0.055695 
513 0.159674 -0.055827 0.144289 0.305215 -0.461988 -0.068858 0.143730 -0.087862 -0.110042 -0.240130 0.153707 -0.451296 -0.187033 0.315426 0.241510 0.260399 -0.121508 -0.311117 -0.143515 -0.332461 0.497379 -0.434941 -0.337647 0.164691 -0.407452 -0.017754 0.068020 0.227626 0.452596 -0.496855 -0.531806 0.192858 0.036748 -0.098107 0.064179 -0.149466 0.236515 0.580479 0.257041 0.288924 -0.039452 0.253912 0.028183 0.005656 -0.035693 -0.155611 0.431886 -0.065506 0.025002 0.277594 0.392419 -0.312974 0.121189 -0.342028 -0.054034 0.225163 0.268915 -0.259836 0.099855 0.034032 -0.160546 0.306201 -0.405965 -0.377032 -0.353559 -0.086738 0.205886 0.082153 -0.181162 0.175957 -0.249944 0.009299 -0.248879 0.060694 0.110893 -0.252832 0.235525 -0.057176 -0.115176 0.410353 0.118925 0.123875 -0.068251 -0.072568 -0.348454 -0.217193 -0.032443 -0.214572 0.176794 -0.140263 0.017369 -0.358928 -0.616733 0.047766 0.165870 -0.071458 -0.177268 -0.288079 -0.032122 -0.065710 
2083 0.051378 -0.171669 0.074724 -0.004081 -0.039292 0.141070 -0.347775 0.021476 -0.318665 -0.162745 0.078652 0.082160 -0.301260 0.005702 -0.082269 -0.206168 -0.056665 0.024742 -0.095248 -0.175386 0.156321 0.233101 -0.098881 0.112359 0.146478 0.086898 -0.125774 -0.226482 -0.068906 0.288060 0.057736 0.068048 0.181992 0.213923 -0.157801 -0.141760 0.073621 0.123844 -0.058532 0.128651 -0.029279 0.114652 -0.011724 0.054897 -0.201528 -0.267114 -0.077479 -0.042073 -0.076770 -0.036476 0.012759 -0.158778 -0.223131 0.050218 0.017369 0.000750 -0.148453 0.055738 0.130809 0.019036 0.053734 -0.126837 -0.120154 -0.048265 -0.126847 0.062848 0.072343 -0.068973 -0.072155 0.084060 0.063347 0.261824 0.104902 -0.010381 -0.001212 0.030001 -0.038616 -0.082675 -0.017667 -0.288476 0.051155 0.064620 0.107743 0.000827 -0.091475 -0.147318 -0.189874 0.155048 0.011643 -0.017295 0.051825 0.026926 -0.257270 0.307214 0.015182 0.457056 0.112273 0.036469 0.005048 0.241144 
192 0.115758 -0.304461 0.161089 -0.000474 -0.096956 0.209680 -0.552926 -0.018582 -0.425015 -0.148648 0.091916 0.123821 -0.382161 0.047733 -0.082157 -0.280286 -0.056053 -0.003361 -0.198453 -0.221603 0.290564 0.362116 -0.102769 0.188922 0.273314 0.146405 -0.215380 -0.333105 -0.134309 0.405702 0.052291 0.116435 0.217715 0.304452 -0.159687 -0.179270 0.107204 0.165828 -0.143203 0.155483 -0.060704 0.181469 -0.078725 0.090642 -0.292967 -0.426822 -0.134125 0.000234 -0.112116 -0.101904 0.002628 -0.211254 -0.290440 0.108589 0.009185 0.047942 -0.245807 0.032995 0.225750 0.031387 0.012895 -0.278692 -0.169593 -0.118678 -0.199796 0.124894 0.115849 -0.076343 -0.058582 0.103673 0.137183 0.437635 0.176740 -0.073510 -0.010883 -0.025736 -0.044117 -0.135767 -0.032052 -0.427504 0.102034 0.114628 0.123674 0.028400 -0.190635 -0.216646 -0.236258 0.167577 0.069748 0.052344 0.095992 0.055620 -0.450238 0.494709 -0.020402 0.683890 0.268828 0.006545 0.016583 0.299078 
2179 -0.028997 -0.116173 -0.540344 -0.260320 0.243734 -0.206707 -0.044380 0.208355 -0.039029 0.346192 0.230637 0.020615 -0.054743 0.119022 -0.352349 -0.063233 0.334085 0.205826 0.131302 -0.301636 0.217041 -0.493629 -0.144733 0.459885 -0.172585 -0.224062 0.288508 0.078675 0.486227 -0.095077 0.066025 0.108517 -0.077496 0.123788 -0.120655 0.058585 0.300213 -0.230854 0.008360 0.093417 0.147208 0.586004 -0.124211 -0.201568 0.028341 0.165975 -0.097498 -0.014754 0.289257 -0.217047 0.331847 -0.027580 0.318554 0.345923 0.140132 -0.321382 -0.252890 0.082239 0.411366 0.123158 -0.191427 0.558859 0.072194 -0.148094 -0.172106 -0.073433 -0.056588 0.020805 -0.112814 -0.000293 0.116722 -0.065648 0.266643 0.155477 -0.164385 -0.031296 -0.390832 0.072343 -0.055397 -0.339925 -0.218882 -0.137481 0.462906 -0.109776 0.138285 -0.020995 -0.194250 -0.102131 -0.316279 0.427488 -0.252459 -0.098322 0.242778 -0.398967 0.121221 -0.233088 -0.032585 -0.017156 -0.093188 -0.171068 
583 0.033400 -0.181866 -0.416726 -0.578396 0.001700 -0.038121 -0.346141 0.077330 -0.110619 0.143759 0.026266 0.078881 -0.278411 0.183019 -0.581747 -0.218869 0.537281 0.198185 0.263572 -0.464625 -0.142609 -0.445322 0.020394 0.421469 -0.050122 0.120404 0.146921 0.362899 0.567947 -0.182890 0.027348 -0.070825 -0.093655 -0.010555 0.152585 -0.106767 -0.031207 0.130543 -0.057569 -0.095409 0.154465 0.381573 -0.283542 -0.041363 -0.013984 0.138346 -0.409140 -0.142284 0.176755 -0.078760 0.455894 -0.471290 0.368981 0.179750 -0.202606 -0.267491 -0.073238 -0.082587 0.007936 0.280150 0.050453 0.721058 0.058412 0.008212 0.368421 -0.147573 -0.269326 0.146846 0.154552 0.343729 0.183942 -0.101289 0.177550 -0.184534 0.211913 -0.169496 -0.378409 -0.240063 -0.179688 -0.148121 -0.363617 -0.215453 0.356374 -0.026573 0.109216 -0.255462 -0.016010 -0.027702 -0.242942 0.433782 -0.265016 0.439080 -0.096565 -0.348486 0.020408 0.045794 0.009224 0.107189 0.046480 -0.525801 
579 -0.154315 -0.273910 -0.386050 -0.175755 0.176119 -0.185699 -0.452597 0.438742 -0.121419 0.241822 0.315257 -0.229723 0.004493 -0.007647 -0.090813 0.194952 0.377508 -0.126239 0.441986 0.109058 0.318303 -0.241599 0.072586 0.026550 0.269803 0.105950 -0.020118 0.091164 -0.198288 -0.302350 -0.185302 0.176644 0.130143 0.197064 0.103480 -0.383251 -0.581436 0.066617 0.066518 -0.340463 0.040303 -0.078369 -0.289839 0.432587 -0.036421 -0.125281 -0.527740 0.278606 -0.048163 -0.058447 0.531423 -0.264257 -0.024095 0.164902 -0.256895 -0.159152 0.004006 -0.184018 -0.127257 0.326472 -0.027521 0.584773 0.307490 0.113067 0.165689 -0.086507 0.040598 -0.386807 0.133956 0.203469 0.157052 0.034355 -0.085161 0.188823 -0.381660 -0.220683 -0.025944 0.049802 -0.107448 0.183406 -0.031483 0.494963 0.155502 0.334611 0.187370 -0.456386 0.206627 -0.254356 -0.013031 -0.105497 -0.223847 0.368950 0.000898 -0.137428 0.014869 0.130203 -0.251954 -0.042616 0.192265 -0.114386 
2191 -0.113663 -0.192178 -0.080794 -0.289344 0.007998 0.257215 -0.196192 0.034984 0.034484 0.037515 0.011598 -0.056879 -0.253538 0.215223 -0.209376 -0.311241 0.187854 0.181698 0.090914 -0.518965 -0.074009 -0.223714 0.028801 0.433292 -0.075724 -0.116472 0.156052 0.296490 0.508080 0.039431 0.034826 -0.254116 -0.250642 -0.133352 0.011232 -0.121402 0.066754 -0.062036 -0.168564 0.002456 0.382527 0.362254 0.097087 -0.174091 0.068934 0.064056 -0.156000 -0.203134 -0.093790 -0.079122 0.375280 -0.232510 0.261537 0.069963 -0.103252 -0.416954 -0.142443 -0.001274 0.143599 -0.156990 -0.013366 0.261632 -0.089561 -0.116589 0.202403 -0.051640 -0.236679 0.198115 0.132084 0.225201 0.056471 -0.058712 0.174054 -0.254329 0.128867 -0.224863 -0.427539 -0.077411 0.033429 -0.167602 -0.308160 -0.379655 0.469699 -0.037297 -0.131053 0.024991 -0.185089 0.183243 -0.187194 0.170883 0.143565 0.154520 0.120729 -0.175894 0.338889 -0.039583 0.024343 0.112470 0.038438 -0.302358 
1260 0.112822 -0.203003 -0.097243 -0.348849 0.145521 -0.006460 -0.107887 -0.109993 -0.127428 0.048272 -0.020572 0.254185 -0.133730 0.086906 -0.227036 -0.069093 0.186193 0.086545 0.066603 -0.210952 -0.056135 -0.212824 0.078435 0.270637 -0.003789 0.065177 -0.140460 0.139173 0.363240 0.002072 -0.043197 -0.137144 -0.160013 0.117866 -0.003003 -0.165354 -0.244370 -0.131353 -0.263496 -0.062941 -0.046997 0.151612 -0.064980 -0.047590 0.098668 0.175852 -0.293327 -0.067895 0.126478 0.124506 0.044284 -0.203043 0.119256 -0.065345 -0.045652 0.075555 0.250991 -0.024610 -0.053984 0.060520 -0.153024 0.349820 -0.166158 0.006991 0.249329 -0.083496 -0.150673 0.115083 0.093341 0.264795 -0.027666 -0.069432 -0.104252 -0.057736 0.063034 -0.287949 -0.244799 -0.050915 0.053710 -0.072667 -0.132822 0.000006 0.010037 0.103577 0.035627 -0.319212 -0.225294 0.286149 0.065858 0.322158 -0.162361 0.270313 -0.119273 -0.366871 -0.030117 -0.228941 -0.215509 -0.006359 0.173808 -0.248894 
1349 0.068074 -0.285264 -0.028735 -0.076962 0.154643 0.034053 -0.011029 0.146339 -0.237986 -0.141120 -0.106909 0.076263 -0.121648 -0.088135 0.085684 -0.085305 -0.208584 -0.234660 0.363668 0.218970 -0.031904 0.004431 0.188356 0.057905 -0.086064 -0.041483 0.260251 -0.378290 0.187155 0.258072 -0.080824 0.061913 0.252694 0.038801 0.169901 -0.069982 0.192126 0.301507 -0.018395 -0.094672 0.227309 0.155355 -0.115425 -0.111278 -0.101747 -0.171240 -0.094227 -0.117720 -0.034997 0.018206 -0.382480 -0.196650 -0.453474 0.051287 0.080007 -0.100687 -0.010564 0.106606 0.100752 0.157935 -0.196970 -0.037052 -0.232955 0.258938 0.116138 -0.144273 -0.190460 0.052713 0.139237 -0.217015 -0.126750 -0.180637 -0.082044 0.056688 -0.157772 0.222705 -0.089721 -0.349148 0.251509 0.008976 0.000326 -0.201115 -0.096060 0.235368 -0.055585 -0.348947 0.080323 -0.101819 -0.039130 -0.164020 -0.012412 -0.120004 -0.037330 0.080820 0.151045 -0.059974 0.163807 -0.463776 0.016264 0.006153 
889 0.038791 -0.414386 -0.039828 -0.031282 0.162782 -0.103067 -0.045225 0.176848 -0.116761 -0.219305 -0.098514 0.075138 -0.117738 0.004715 0.070733 -0.091612 -0.219868 -0.292090 0.394456 0.144062 0.017980 -0.000914 0.262277 0.066619 -0.083502 -0.077586 0.385575 -0.436845 0.248582 0.374844 -0.113358 0.116251 0.175611 -0.013674 0.177689 -0.021442 0.231668 0.258903 -0.042987 -0.076535 0.275162 0.281212 -0.113961 -0.283348 -0.050962 -0.214401 -0.006425 -0.113429 -0.077955 -0.029103 -0.379254 -0.183264 -0.449091 0.121119 0.152631 -0.138119 0.020292 0.152115 0.148411 0.234421 -0.156542 -0.006840 -0.208448 0.260608 0.096490 -0.132139 -0.152317 0.195298 0.161318 -0.342281 -0.100297 -0.271402 -0.083847 0.009022 -0.301202 0.265076 -0.129566 -0.384460 0.268180 0.087539 0.075613 -0.185023 -0.017856 0.346671 -0.174776 -0.286764 0.152443 -0.132080 -0.011391 0.001482 -0.043106 -0.002682 -0.003498 0.031227 0.290506 -0.048273 0.232860 -0.503174 0.014912 -0.001881 
1088 -0.243010 -0.027243 0.213383 0.004827 0.077384 0.089175 -0.229551 0.505740 -0.183768 0.177445 0.194320 0.328496 0.149516 0.479967 0.124009 0.168620 -0.315774 -0.121065 0.019420 0.054485 0.255826 -0.141651 -0.003427 -0.033008 0.022845 -0.025767 -0.194956 0.201351 -0.120399 0.492246 -0.364353 -0.159569 0.265346 0.252101 -0.081659 0.023797 0.210520 -0.342748 -0.114802 -0.000270 0.393266 0.083199 0.075969 -0.008290 0.065462 0.203464 0.056426 0.009059 0.378150 -0.364791 0.113337 0.053882 0.004444 -0.339324 -0.010051 -0.267113 0.163678 0.062383 -0.334925 -0.323746 0.175639 0.323300 -0.211090 -0.193385 -0.093061 0.150305 -0.344392 0.136646 0.623324 -0.191886 -0.021905 -0.118291 -0.222323 0.168399 0.280088 0.008792 -0.166383 0.296331 -0.124845 0.161054 -0.349590 -0.330839 -0.296407 -0.108973 -0.115043 0.132796 -0.084073 -0.342414 0.109949 -0.204394 -0.208550 0.034641 0.030358 0.563217 0.022961 0.146187 0.031595 0.354200 0.218977 -0.196286 
667 -0.334518 -0.096815 0.070742 0.007359 -0.001035 0.071003 -0.120854 0.314431 -0.243169 0.080921 0.072586 0.282593 0.021727 0.377928 0.013199 0.057697 -0.217066 -0.082669 0.017762 -0.086629 0.240111 -0.086712 -0.060966 -0.016070 0.038627 0.013198 -0.150407 0.025575 -0.141129 0.324391 -0.198496 -0.063583 0.130056 0.191521 0.009374 -0.005225 0.157330 -0.290879 -0.084225 0.036666 0.282983 -0.025933 0.053827 0.083047 0.092508 0.214283 0.030394 -0.003962 0.310248 -0.229817 0.077213 -0.008435 0.059054 -0.230610 -0.019965 -0.272539 0.110127 0.031476 -0.267664 -0.279416 0.094515 0.160007 -0.141365 -0.107173 -0.062589 0.069954 -0.203694 0.137186 0.471964 -0.104319 -0.022928 -0.171838 -0.138973 0.177957 0.262336 -0.049015 -0.065790 0.300918 0.009308 0.087824 -0.196573 -0.203158 -0.233195 -0.011362 0.024032 0.203415 -0.063335 -0.379510 0.093561 -0.106400 -0.093378 -0.025679 -0.015306 0.459631 0.138075 0.064301 0.021193 0.134505 0.232520 -0.201088 
1089 -0.464572 -0.157008 0.120599 0.005041 -0.011342 0.081604 -0.184664 0.414867 -0.336806 0.097059 0.100066 0.370422 0.038898 0.482502 0.013016 0.083185 -0.305649 -0.122263 0.001658 -0.102797 0.322192 -0.114066 -0.094462 -0.024697 0.049793 0.035629 -0.182972 0.020378 -0.185739 0.443393 -0.285291 -0.083993 0.187246 0.253532 0.012943 -0.020736 0.188439 -0.386041 -0.082893 0.031444 0.371982 -0.038328 0.076442 0.100758 0.120582 0.280538 0.033614 0.003110 0.421990 -0.303943 0.108898 -0.006830 0.073413 -0.279973 -0.041982 -0.370824 0.133272 0.070011 -0.369007 -0.361991 0.112372 0.208678 -0.211433 -0.162832 -0.058834 0.117077 -0.287807 0.190881 0.640837 -0.145135 -0.039939 -0.267901 -0.198500 0.229255 0.396184 -0.071147 -0.071007 0.439633 0.008923 0.101238 -0.260890 -0.247134 -0.338854 -0.032221 0.065483 0.292453 -0.070745 -0.537420 0.151081 -0.100302 -0.129308 -0.051010 -0.036657 0.621260 0.176516 0.092247 0.040587 0.190947 0.279710 -0.285566 
446 0.210605 0.045445 -0.328039 0.158212 0.251862 0.169822 0.205789 0.012506 -0.367510 -0.139669 0.193280 -0.274011 -0.396426 -0.357474 0.269249 0.207011 0.103506 -0.250013 -0.179739 0.293540 0.028158 -0.415093 -0.059927 0.070297 0.030034 -0.242600 -0.424352 -0.307198 -0.153102 0.048107 0.193855 -0.236288 0.254643 -0.061183 -0.244496 -0.004224 -0.100915 -0.288810 -0.048232 0.054005 -0.101009 0.061164 0.279149 -0.180724 0.169710 -0.115387 -0.180518 -0.213454 0.163943 0.188146 0.192851 -0.003265 0.074331 0.363379 -0.329728 -0.137355 0.222011 -0.483046 0.119219 0.127398 0.349545 -0.129171 -0.024255 0.183551 -0.007911 -0.167261 -0.307957 0.208756 -0.241029 -0.096917 -0.094663 -0.061553 0.283054 -0.205614 -0.047849 -0.004219 0.086010 0.149479 -0.096745 0.225310 -0.118098 -0.283186 -0.179650 -0.173858 -0.137026 0.157200 0.396902 0.162291 -0.039088 0.317058 -0.082344 0.244067 -0.183403 0.288841 0.217360 0.007228 0.000654 -0.090757 -0.038109 -0.101884 
1909 0.196270 0.042752 -0.363268 0.187134 0.243163 0.186003 0.217372 0.007120 -0.391970 -0.131183 0.172048 -0.258711 -0.399755 -0.389441 0.280408 0.269281 0.117151 -0.268515 -0.212114 0.315265 0.053533 -0.414371 -0.102788 0.072435 0.004142 -0.269471 -0.435264 -0.341357 -0.182264 0.049368 0.216105 -0.238212 0.288093 -0.069485 -0.290550 -0.021240 -0.091303 -0.309284 -0.072503 0.041544 -0.103925 0.049381 0.258944 -0.196180 0.200758 -0.125786 -0.221408 -0.190394 0.198922 0.207631 0.177291 -0.025117 0.091143 0.374261 -0.341490 -0.128444 0.222565 -0.541892 0.087446 0.143329 0.387906 -0.104817 -0.031324 0.189615 -0.029717 -0.173284 -0.363946 0.221220 -0.304886 -0.041162 -0.058579 -0.069609 0.280486 -0.238302 -0.076475 0.016723 0.084475 0.137843 -0.088036 0.216010 -0.127050 -0.327409 -0.196639 -0.179573 -0.159345 0.140725 0.428373 0.146681 -0.026823 0.360057 -0.103772 0.224752 -0.178698 0.314198 0.217481 0.007136 0.004200 -0.092304 -0.073002 -0.131176 
2051 0.035938 0.276777 -0.454135 0.010404 0.114222 0.184894 0.121919 -0.014609 -0.422976 -0.000119 0.374639 -0.230143 -0.281300 -0.401051 0.060966 0.091732 0.130055 -0.069406 -0.088420 0.108996 0.181288 -0.534424 0.128528 -0.077709 -0.022849 -0.082668 -0.331292 -0.311569 0.096026 -0.031290 0.151242 -0.210368 0.384933 0.118354 -0.070543 -0.025577 -0.178616 -0.315833 0.036450 -0.040681 -0.119049 0.280758 0.301931 -0.177540 0.004291 -0.043984 -0.259892 -0.236624 0.163362 0.287457 0.320384 -0.168677 -0.125782 0.419558 -0.352813 -0.020850 0.079107 -0.613762 0.201920 0.379374 0.507946 0.054902 -0.065755 0.237804 0.170049 -0.365447 -0.282456 0.144579 0.042634 -0.163332 -0.029253 -0.128958 0.627377 -0.266200 0.102085 0.025136 0.211949 -0.031363 -0.205284 0.295897 -0.227621 -0.415362 -0.181207 -0.516119 -0.100991 0.316929 0.546242 0.094666 0.169911 0.470875 0.010367 0.592636 -0.335510 0.205777 0.119239 0.115544 -0.029297 -0.135939 -0.007348 -0.248278 
1214 0.138973 0.473781 -0.236169 -0.111437 0.039175 0.182256 0.226780 -0.146377 -0.144236 -0.120153 0.259134 0.091814 -0.404016 -0.132489 0.160947 0.066199 0.246711 -0.410381 -0.168826 0.094940 0.124793 -0.443699 0.043373 0.100771 0.244944 -0.252655 -0.612893 -0.224998 0.233192 -0.086137 0.669603 -0.121121 0.447025 0.153696 -0.105253 -0.025805 0.008360 -0.185812 -0.103868 0.039976 -0.106275 0.091902 0.167108 -0.015705 -0.042389 0.109266 -0.217582 -0.081074 0.254033 0.378390 0.092810 -0.218454 -0.092146 0.169340 -0.266187 0.059949 0.133248 -0.657014 -0.040611 0.516251 0.801710 -0.218621 0.132432 0.204346 -0.119445 -0.145785 -0.412055 0.142928 0.038199 -0.173784 -0.147462 -0.018888 0.370099 -0.473534 0.362659 0.324299 0.444878 -0.118130 -0.247485 0.231024 0.048713 -0.243833 -0.546885 -0.396038 -0.136965 0.353720 0.491865 0.098939 0.172673 0.418108 0.100669 0.695444 -0.571389 0.273629 -0.070910 -0.115006 0.367323 -0.085793 -0.109146 -0.277739 
2054 0.346078 -0.068132 0.004688 0.014224 0.222198 -0.200274 0.309828 -0.011538 0.053937 -0.046380 0.108437 -0.224261 -0.161549 -0.302531 0.092004 0.041455 0.377008 -0.237577 -0.004264 -0.028964 -0.040705 -0.146672 0.151048 -0.151346 -0.040379 -0.005923 -0.039439 -0.040663 -0.065844 0.236068 0.048890 -0.130837 -0.179806 0.010398 -0.354360 0.117622 -0.181082 -0.277584 0.111277 0.316274 0.051017 -0.095517 0.081943 -0.096092 -0.084052 -0.016750 -0.054958 -0.281828 0.148523 -0.068376 0.109238 -0.164868 0.163451 0.213013 -0.092263 -0.222005 0.123690 0.071946 0.085940 -0.043867 -0.191792 -0.196760 -0.197129 0.051320 0.244451 0.045434 -0.129762 -0.053023 -0.355397 0.059494 0.012046 -0.055040 0.355327 0.154155 0.128480 0.102060 0.167236 0.380671 -0.065186 0.495490 0.086261 -0.447923 -0.149821 0.222758 -0.194829 -0.131156 0.266666 -0.184653 0.051695 -0.051849 -0.124201 0.186272 -0.180850 0.010125 0.227956 0.099453 -0.043918 0.171775 0.184883 0.135940 
2027 -0.051771 0.152653 0.115534 0.158382 0.028609 -0.087117 0.043087 -0.006162 -0.166835 0.045207 0.202855 -0.086439 -0.006530 -0.082514 0.117542 0.149671 0.149513 0.125654 0.128734 -0.161763 0.039361 -0.038591 0.120498 0.113948 0.154010 -0.037077 0.031434 0.270952 -0.122788 0.043194 -0.057438 0.082832 -0.215701 0.083380 -0.457392 -0.012264 -0.051026 -0.193228 0.149673 0.268865 0.021809 -0.167547 -0.294910 0.021564 -0.015290 0.332685 -0.072181 -0.189839 -0.151649 -0.309138 -0.126463 -0.329763 -0.082265 0.274052 0.138294 0.140826 0.005409 0.322635 -0.221367 0.217391 -0.150923 -0.285530 -0.391953 -0.074277 0.211854 -0.088602 -0.228869 -0.079498 -0.299216 0.033882 -0.168398 -0.066974 0.119296 -0.124065 0.186112 -0.025186 0.032783 0.018646 0.195099 0.194369 0.061461 -0.034905 0.090184 0.005488 -0.245425 -0.133102 0.153157 -0.256057 0.049787 -0.006511 -0.056021 0.011372 0.138145 -0.085667 0.040354 0.090517 -0.101614 -0.018050 0.140196 0.080457 
105 -0.077599 0.486813 0.279591 -0.015594 -0.054560 -0.314531 0.065867 -0.079878 -0.140414 0.153396 0.474637 0.079055 0.119980 -0.153609 0.010844 0.161896 0.381906 0.295955 0.170102 -0.455598 0.031552 -0.076601 0.268697 0.087295 0.252926 0.026460 0.118585 0.507085 0.066305 -0.152463 0.116763 0.294930 -0.104229 0.190708 -0.598913 0.027974 0.058869 -0.216814 0.175801 0.405415 -0.016440 -0.257491 -0.470506 0.076203 -0.089242 0.660990 -0.040024 -0.224741 -0.113757 -0.493080 -0.121750 -0.740921 -0.225639 0.478793 0.139178 0.352350 0.018488 0.530294 -0.481106 0.585806 0.031755 -0.513561 -0.618447 0.025287 0.318830 -0.153390 -0.432986 -0.000601 -0.375023 0.002277 -0.279983 -0.105908 0.298961 -0.268599 0.542311 0.174686 0.289397 -0.214883 0.184895 0.274602 0.054661 -0.181813 -0.042608 -0.133024 -0.296944 -0.161160 0.382257 -0.501010 0.174572 0.121165 -0.245514 0.332468 -0.075973 -0.168471 -0.034538 0.145325 0.049693 0.013576 0.037905 -0.141647 
1640 -0.056259 0.494492 0.222005 0.015698 -0.133494 -0.221978 0.103747 -0.123356 -0.054294 0.064822 0.439838 0.152014 0.132701 -0.044057 -0.026901 0.149747 0.364531 0.170743 0.181868 -0.304619 0.028055 -0.063375 0.187070 0.107237 0.167630 0.093255 0.106614 0.383211 0.081400 -0.153796 0.108038 0.222735 -0.008078 0.167720 -0.392913 0.086548 0.117848 -0.157252 0.084574 0.205392 -0.004752 -0.132024 -0.420399 0.073086 -0.063408 0.522333 -0.046949 -0.144250 -0.067822 -0.320551 -0.127269 -0.611811 -0.173782 0.447682 0.123793 0.303852 0.000132 0.338302 -0.394574 0.485763 0.164850 -0.373756 -0.358290 0.037142 0.269005 -0.097408 -0.320528 0.007630 -0.215234 -0.109510 -0.185900 -0.096715 0.353112 -0.285789 0.531172 0.112155 0.205738 -0.248440 0.096640 0.299262 0.134277 -0.198289 -0.042485 -0.112076 -0.230445 -0.114893 0.296971 -0.401787 0.212150 0.198408 -0.248676 0.334224 -0.122845 -0.099698 -0.132695 0.060508 0.080105 0.009452 0.042530 -0.119954 
1083 0.117110 0.107299 0.046045 0.079996 -0.116690 -0.050122 -0.164981 0.188276 -0.230154 0.098622 -0.205893 -0.282084 0.044824 0.061076 -0.036230 0.087349 -0.111037 -0.068951 0.212367 0.120381 -0.046316 -0.138929 -0.184450 -0.207572 0.106894 -0.083977 0.268009 0.284984 -0.206762 -0.000261 0.100597 0.179136 -0.050244 -0.208166 0.140331 -0.051477 0.174943 0.219293 0.135620 -0.097787 0.089538 0.058954 0.204233 -0.096753 -0.223580 -0.030987 -0.068522 -0.412590 -0.042216 -0.166303 -0.044497 -0.226987 0.094857 0.108917 -0.027631 -0.368853 -0.253829 -0.082441 0.132649 -0.104316 0.206650 0.050228 0.379146 0.226331 -0.173269 0.343328 0.005204 0.032327 -0.081850 0.009963 -0.053742 0.086926 0.319107 -0.168613 0.085410 0.075986 0.135873 -0.119460 -0.027046 0.049990 0.277101 0.134682 0.104406 -0.254824 -0.014629 0.104660 0.254340 -0.368601 -0.107662 -0.189952 0.187805 -0.251501 0.302906 0.257452 0.109952 0.060776 0.048647 0.216402 -0.060404 0.142498 
1082 -0.561445 -2.744915 3.624693 -0.772370 -1.317272 -1.861380 -1.871320 -1.548552 2.721597 5.691508 2.701800 -3.071693 -2.147721 -2.670054 -0.888768 1.154122 -1.627421 1.025003 -0.532140 2.321342 -4.819375 1.166008 0.997400 -0.971461 -2.388253 -2.206697 0.182181 -2.397697 2.384501 -1.200373 1.003569 -0.587474 -0.132883 0.948547 1.881399 -0.902104 -0.516279 1.671043 1.823748 -2.613407 1.973991 0.645601 1.109332 -0.634133 -0.857814 -2.956672 1.929958 3.452609 -0.237355 1.793044 0.065354 3.404725 4.013327 2.459606 3.014716 0.765986 0.876302 4.395846 -4.026840 2.453906 0.837638 -1.729769 2.745308 0.138500 2.304473 4.876194 0.723220 0.741358 -0.512788 0.300285 -3.024982 -3.829784 0.891271 -1.223634 1.708011 -1.159322 3.971586 1.463443 -1.756812 -3.284708 -0.482410 2.099568 0.660369 -3.151598 1.665160 -0.255169 1.537161 -3.907906 -0.276718 0.692674 2.007610 -1.334864 -0.734217 2.804469 1.289774 1.154190 0.531103 2.734319 -5.442711 -2.262632 
560 -0.792785 -3.639831 4.277380 -0.208467 -1.233967 -1.563977 -2.604558 -1.332105 3.570483 6.564537 4.251922 -4.012699 -2.040318 -2.897169 -0.309080 1.468454 -2.860403 1.455363 -0.739562 2.554344 -4.547577 1.014993 2.802867 -1.174969 -2.907851 -1.978596 0.582379 -2.225550 2.590358 -0.916839 1.524418 -0.829432 0.713477 0.590476 0.685099 -0.907744 -1.610159 2.045495 1.323998 -4.277752 1.876289 0.919780 1.498523 -1.186060 -0.667509 -2.346619 4.164779 3.931678 -0.379290 2.134057 0.616613 4.084939 4.092249 2.945645 3.408652 0.914349 0.708091 4.092111 -4.423225 1.956369 1.565202 -1.405629 2.949250 1.342156 2.370401 5.720146 0.081387 -0.528475 -0.132438 0.441800 -3.100491 -3.485190 0.632331 -0.919564 0.557271 -2.485823 3.994810 2.322663 -1.074260 -4.303596 -0.179235 0.590697 0.864111 -3.466192 0.813794 -0.658967 1.222985 -4.018048 -0.214660 0.561911 1.901121 -2.382055 -1.522512 2.278459 1.677377 1.396563 0.712575 2.815915 -6.990531 -1.590704 
202 0.478075 -0.168326 -0.047615 0.136881 -0.496796 0.097247 0.205647 -0.061602 0.212556 0.151096 -0.168216 -0.189714 0.043602 -0.101107 -0.304599 0.333993 -0.226986 0.230137 0.036172 -0.000946 0.054541 -0.341776 0.000835 0.061327 -0.044058 -0.280404 -0.142891 0.182374 -0.408164 0.176795 0.326199 0.400584 -0.081734 0.244691 0.185367 -0.462090 0.151734 -0.118922 0.119610 -0.621378 0.019638 -0.020869 -0.243423 -0.234754 -0.239320 0.385057 0.195933 0.135615 0.115704 0.157887 0.203418 0.032234 -0.459164 0.236511 0.063998 -0.119414 -0.012978 0.012241 0.008381 -0.364666 -0.075814 0.047779 -0.110890 -0.203365 0.100725 -0.142262 0.029324 0.199204 0.045707 0.332597 -0.124749 0.184689 -0.104941 -0.068245 0.367030 0.401179 -0.144361 -0.057869 -0.051246 0.221674 -0.311141 -0.001428 0.086831 0.365412 0.291250 0.248888 -0.096806 0.155317 0.128810 0.008362 -0.184935 0.378511 -0.135066 -0.026876 0.232699 0.055089 0.151847 -0.247725 -0.113258 0.495478 
1123 -0.009772 -0.162054 0.053475 -0.233450 -0.087234 0.289735 -0.319717 0.039900 0.162852 -0.248415 -0.390778 0.007302 -0.479646 0.474502 -0.547287 -0.176727 0.031159 0.018777 -0.032844 -0.334274 -0.401308 -0.125569 0.128238 0.113019 -0.016857 0.108742 -0.260984 0.327002 0.308105 -0.139453 -0.118077 -0.390837 -0.068496 -0.265619 0.190435 -0.200582 -0.169517 0.259102 -0.108037 -0.034966 0.071893 0.114397 -0.163611 0.063194 -0.072147 -0.030535 -0.018954 -0.600089 -0.168472 0.216730 0.085932 -0.326424 0.451644 0.486352 -0.398350 -0.239051 -0.122657 -0.101740 -0.102256 -0.179714 -0.057997 0.213979 -0.183567 -0.123680 0.734194 0.010004 -0.478823 0.343833 0.085989 0.299774 0.024348 0.079773 0.031204 -0.356633 0.082996 -0.306708 -0.620772 -0.152922 0.025604 -0.231789 -0.323605 -0.443191 0.225435 -0.155263 -0.185690 -0.144285 -0.264684 0.011054 -0.391657 0.156254 0.175014 0.085018 -0.146230 -0.174696 -0.120920 0.262119 0.090354 0.042263 0.181236 -0.058613 
1340 0.063269 -0.115957 0.249924 0.021193 -0.091041 -0.080448 -0.146385 0.381630 0.016647 -0.166632 -0.190698 -0.106567 -0.123276 0.342560 -0.057160 -0.374696 -0.160386 -0.037431 0.344889 -0.284715 0.052808 0.262892 0.035637 0.075508 -0.377544 0.248091 0.199912 0.291745 0.101704 -0.038625 0.568461 -0.193579 0.016938 -0.270505 0.341564 0.186532 -0.219276 0.016781 0.077840 -0.370275 -0.098224 -0.257268 -0.244096 0.109685 0.090019 -0.193777 0.032529 -0.234990 0.219183 -0.079028 0.012046 -0.051200 0.131453 0.411550 -0.381288 0.217151 -0.184118 -0.063612 0.163014 -0.103184 -0.303298 0.198037 0.208285 -0.037946 0.581066 -0.394773 -0.165604 0.181897 -0.083325 -0.029167 -0.223429 0.125702 -0.065210 -0.039665 0.058125 -0.028091 -0.046213 -0.015631 -0.268844 0.050165 -0.301073 -0.483713 -0.107032 -0.629860 -0.114734 0.230168 0.081348 0.055254 -0.000307 0.090455 -0.044901 0.038654 -0.375592 -0.176597 -0.126841 0.335514 -0.031708 -0.037296 0.334444 -0.171182 
882 0.233326 -0.272488 0.120146 0.224492 0.106133 0.059232 -0.207551 0.121112 -0.016227 -0.046494 0.064650 0.126243 0.061236 0.220623 0.160318 -0.194563 -0.356457 -0.005489 0.412885 -0.209168 0.044292 0.361399 0.178150 0.043509 -0.456109 0.035111 0.073731 0.168530 -0.072311 0.135397 0.553105 -0.056323 -0.178881 0.119298 0.041690 0.226223 -0.057236 0.143578 0.134305 -0.388420 -0.351582 -0.297869 0.023839 -0.155786 0.222782 -0.415551 -0.105221 -0.119805 0.064462 -0.373204 0.024706 0.029985 0.082401 -0.055321 -0.342365 0.232174 -0.205706 -0.140644 0.268477 -0.197560 -0.503950 0.361633 0.302323 -0.063970 0.297205 -0.391913 -0.050252 0.253947 -0.256730 -0.019667 -0.106923 -0.171242 0.026289 0.083114 0.061300 -0.250927 0.079473 0.003053 -0.159183 0.185307 0.081800 -0.230939 0.005834 -0.584494 0.098656 0.293590 0.079115 0.009536 -0.046081 -0.003245 -0.262859 -0.004327 -0.206560 -0.091966 0.075088 0.269498 -0.195640 -0.094135 0.377566 -0.024510 
700 0.203709 0.070004 -0.189502 0.017000 -0.067205 0.064795 -0.168464 -0.159447 -0.211641 -0.166658 0.490844 -0.062766 -0.168416 -0.000471 0.563745 0.217615 0.009985 0.290607 -0.129199 0.155345 0.205683 0.001843 -0.130114 0.065307 -0.018912 0.219562 0.263166 -0.082102 0.088000 -0.159253 0.091587 -0.168447 -0.039011 -0.107228 0.417353 -0.061989 0.029999 -0.166644 -0.200171 0.296248 -0.116744 0.118252 -0.248228 -0.192417 -0.525978 0.012407 0.020241 0.056545 -0.021577 -0.013828 -0.077589 -0.174859 -0.310569 -0.286505 -0.061977 -0.079325 -0.598968 -0.138099 0.105495 -0.050870 -0.291025 -0.352958 0.370215 -0.083722 0.099834 0.150906 0.207919 0.197721 0.088534 0.308732 0.033393 -0.176845 -0.121223 -0.156382 -0.108710 0.033206 -0.014952 0.301893 0.452919 -0.232963 -0.177594 -0.037074 0.052288 0.010071 -0.179377 0.013298 -0.139451 0.078662 0.108719 0.078666 -0.256898 0.151199 -0.059470 0.137446 0.032480 0.255326 0.286346 0.336732 0.336086 -0.063406 
2176 0.255753 0.008863 -0.134279 0.001388 -0.037877 0.109226 -0.124964 -0.162290 -0.191744 -0.107440 0.420520 -0.039141 -0.105850 0.023115 0.563623 0.224753 0.074105 0.272513 -0.170532 0.243012 0.203428 -0.065464 -0.138964 -0.005975 -0.038456 0.153277 0.207486 0.020582 0.093112 -0.195988 0.025993 -0.246684 -0.118608 -0.063745 0.417917 -0.070923 0.092068 -0.241593 -0.235724 0.209662 -0.135228 0.086260 -0.237135 -0.160849 -0.502286 0.017191 -0.028794 0.064596 0.002530 -0.043440 -0.123126 -0.264133 -0.205816 -0.217848 -0.031156 -0.172845 -0.574210 -0.187237 0.066578 -0.016642 -0.348315 -0.395171 0.343540 -0.109745 0.105110 0.203981 0.196992 0.173713 0.214290 0.244506 0.108727 -0.206004 -0.170903 -0.121316 -0.103819 -0.069634 0.019925 0.222556 0.397073 -0.164870 -0.130121 -0.036844 0.084793 -0.022431 -0.244504 0.026718 -0.110449 0.084056 0.108991 0.109754 -0.197498 0.111197 -0.069912 0.025433 0.026942 0.250227 0.318920 0.224966 0.288102 -0.061457 
1558 0.267152 -0.036650 -0.118379 0.004004 -0.032587 0.139620 -0.041792 -0.082450 -0.166215 -0.104555 0.427963 -0.022250 -0.109387 0.006354 0.566582 0.224072 0.078021 0.259322 -0.199513 0.273640 0.202498 -0.043794 -0.155670 0.002843 -0.035356 0.115992 0.228503 0.081322 0.026416 -0.255402 -0.007090 -0.245235 -0.134708 -0.089685 0.460368 -0.082480 0.102803 -0.286297 -0.267721 0.190306 -0.148296 0.077425 -0.219878 -0.172037 -0.468455 0.037654 -0.039575 0.025961 -0.022479 -0.030342 -0.134479 -0.268237 -0.188354 -0.225028 -0.032335 -0.207262 -0.613654 -0.211965 0.058191 0.022630 -0.386882 -0.445940 0.313275 -0.140035 0.140085 0.224503 0.203985 0.152470 0.280327 0.251829 0.115967 -0.206447 -0.200182 -0.109480 -0.105142 -0.114950 0.050975 0.223748 0.389871 -0.168058 -0.093399 -0.059869 0.126657 -0.039926 -0.280140 -0.029943 -0.082744 0.071951 0.131811 0.101023 -0.245482 0.127772 -0.035476 0.002913 0.043298 0.236500 0.291851 0.176345 0.284451 -0.066903 
45 0.367288 -0.063113 0.040514 -0.165905 -0.191076 0.003281 -0.401825 -0.200875 -0.317361 -0.086082 0.476368 0.176908 -0.223835 0.060600 0.337638 -0.037750 0.217974 0.250189 -0.246181 -0.024218 0.439646 0.196709 -0.179903 -0.007852 0.093135 0.341318 0.128596 -0.046255 0.256531 -0.076269 0.278498 -0.068003 0.209497 0.188264 0.382086 -0.084608 0.208507 -0.174474 -0.386432 0.194726 -0.251463 0.146670 -0.281829 -0.073173 -0.759073 -0.043915 -0.159189 0.121448 0.067116 -0.055660 -0.033606 -0.533624 -0.299851 -0.153333 -0.001558 -0.041850 -0.645022 -0.230950 0.092708 0.272600 -0.042751 -0.557450 0.404520 -0.038785 0.029729 0.233566 0.258086 0.116797 0.290101 0.305359 0.214055 0.029918 -0.068793 -0.183602 0.153167 0.037319 0.202054 -0.071591 0.230948 -0.282477 -0.067018 -0.147395 -0.014026 -0.099683 -0.328950 -0.017182 -0.126315 0.124817 0.342762 0.315398 -0.280966 0.374330 -0.519084 0.199205 -0.074706 0.600160 0.629714 0.270295 0.153471 -0.089809 
1384 0.033242 -0.337606 0.080295 0.257291 0.319831 -0.084690 -0.137854 0.251788 0.005386 0.207820 -0.029310 -0.063055 0.182478 -0.050938 -0.128612 0.073566 0.030587 -0.543729 -0.020576 -0.017423 0.256480 -0.093263 -0.027517 -0.254936 0.012484 0.184283 0.126469 0.131621 -0.222568 -0.306883 0.050791 0.107996 0.249950 0.114353 -0.056516 0.034101 -0.081460 -0.292435 -0.067816 0.087540 -0.279375 -0.230669 -0.053413 0.044063 -0.114651 -0.179922 -0.259886 0.109830 0.294752 0.209514 0.261726 -0.113878 0.021456 0.167528 0.108442 0.219707 -0.199642 -0.185285 0.143501 -0.083128 -0.026867 -0.246511 -0.157241 -0.071746 0.071580 -0.120171 0.155563 -0.086595 -0.007431 -0.066486 -0.148941 0.210008 0.102834 -0.089755 0.061287 -0.035563 0.210059 -0.348523 -0.061776 -0.001229 -0.052287 -0.217193 -0.111254 0.168740 -0.186528 0.037580 -0.190949 0.001599 -0.147004 0.077770 0.032256 0.203257 0.272638 0.154397 0.157375 -0.134224 0.250629 -0.027671 -0.087164 -0.305916 
199 0.135210 -0.258208 0.240212 0.229262 0.374128 -0.207414 -0.186029 0.121830 -0.000223 0.081604 0.065026 -0.096003 0.287948 -0.155674 -0.249720 -0.022245 0.091581 -0.505778 -0.081278 -0.153948 0.212520 -0.339044 0.039964 -0.376307 -0.106430 0.317144 0.144287 0.270120 -0.209660 -0.322632 0.238807 0.189649 0.485064 0.081416 -0.076684 0.063893 -0.023641 -0.388737 -0.040784 0.226259 -0.408773 -0.251325 0.029870 -0.108073 -0.219549 -0.114125 -0.179791 0.032750 0.548196 0.237502 0.322036 -0.381871 -0.010789 0.086910 0.164056 0.355473 -0.165533 -0.193121 0.057921 0.016772 0.243294 -0.309029 -0.351358 0.152693 0.132765 -0.300378 0.195074 -0.007199 0.048400 -0.207374 -0.222613 0.128414 0.360347 -0.028604 0.250238 0.068908 0.541818 -0.511183 -0.187835 -0.128003 -0.085400 -0.325797 -0.168989 0.074401 -0.110126 0.121029 -0.106551 0.017946 -0.266806 0.153193 -0.142087 0.534970 0.194179 0.105564 0.304246 -0.267826 0.471075 0.035857 -0.083543 -0.564732 
1064 -0.197003 0.096112 0.312741 0.013621 -0.062837 -0.176773 0.023008 -0.001656 -0.479912 0.164502 -0.197175 0.049778 -0.068939 -0.345598 -0.053484 0.187469 0.118308 -0.340618 -0.009504 -0.150352 0.284382 -0.112692 0.171561 -0.182125 0.102588 0.128760 -0.105543 0.101885 -0.071637 -0.072345 0.191510 -0.287772 0.175066 -0.228125 0.220550 0.180226 -0.126633 0.075165 0.282243 0.009991 -0.076501 0.259635 0.153181 0.310070 0.199404 0.006521 -0.009698 0.021825 -0.043896 -0.141797 -0.028019 -0.150741 -0.008077 -0.475134 0.294177 -0.016273 -0.219477 0.036357 -0.113591 -0.189379 -0.096603 0.004595 0.021810 -0.056814 -0.034168 0.115856 -0.109833 0.006179 -0.229220 -0.188048 0.038420 -0.164214 -0.242776 -0.239374 -0.014880 -0.093014 -0.315143 0.055005 -0.023897 -0.112651 -0.015552 -0.164448 0.315098 -0.028270 0.267347 0.089809 0.029058 0.030710 -0.020156 0.191441 -0.166219 0.285569 -0.085338 -0.103483 0.048499 -0.082941 0.062759 -0.290562 -0.074043 0.500160 
930 -0.232052 0.161687 0.357445 -0.028712 -0.082235 -0.244556 -0.000954 -0.030384 -0.545471 0.181254 -0.195372 0.084979 -0.063213 -0.371492 -0.116844 0.164840 0.156561 -0.343484 -0.011878 -0.159778 0.392791 -0.089658 0.177307 -0.211737 0.033915 0.198277 -0.118543 0.129186 -0.028637 -0.108425 0.276861 -0.328925 0.234063 -0.276824 0.264454 0.262332 -0.123866 0.086858 0.339529 -0.050425 -0.073520 0.344706 0.177913 0.330684 0.225107 0.053990 -0.018202 0.045383 -0.030029 -0.153085 -0.038013 -0.206736 -0.012573 -0.538791 0.284989 0.011789 -0.251899 0.022736 -0.103419 -0.131501 -0.058911 -0.003499 0.047139 -0.065046 -0.014386 0.137554 -0.146968 0.004231 -0.270610 -0.219847 0.078571 -0.208959 -0.252577 -0.251049 0.056798 -0.087798 -0.324314 0.015886 -0.066619 -0.115797 -0.036823 -0.189759 0.316932 -0.037534 0.297686 0.111404 0.078384 -0.030826 -0.015398 0.234469 -0.227380 0.388972 -0.152260 -0.101368 0.004522 -0.108575 0.141527 -0.301377 -0.151053 0.566409 
208 -0.313647 -0.001505 0.524324 -0.027032 -0.193570 -0.204341 0.145346 0.033191 -0.533529 0.219347 -0.319623 -0.048601 -0.021065 -0.500369 0.002174 0.249665 0.257998 -0.490431 0.030603 -0.196907 0.292846 -0.239349 0.229216 -0.352057 0.135043 0.270932 -0.172077 0.039981 0.084822 0.064509 0.242088 -0.375812 0.249444 -0.212081 0.232532 0.121051 -0.085250 0.018343 0.266588 0.215354 -0.108591 0.110859 0.057228 0.420014 0.217677 0.020632 0.083980 -0.020636 -0.119595 -0.211567 -0.038504 -0.175412 -0.024791 -0.537556 0.301969 0.060708 -0.352583 0.055118 0.013820 -0.277525 -0.143883 0.142840 0.051411 -0.110822 -0.085214 0.315234 -0.040361 -0.072884 -0.192803 -0.231056 0.106604 -0.218594 -0.261556 -0.393368 0.001143 -0.095398 -0.415548 0.124443 -0.060605 -0.205495 -0.001934 -0.264220 0.388893 -0.114503 0.355965 0.094588 0.177459 0.010774 -0.093731 0.198760 -0.262805 0.480924 -0.156169 -0.096613 0.101708 -0.176715 -0.052324 -0.420059 -0.130707 0.594141 
933 -0.243067 0.301159 0.438681 -0.156878 -0.170048 -0.385769 -0.086452 -0.080969 -0.594423 0.159049 -0.149243 0.241182 -0.041470 -0.421297 -0.248794 0.105486 0.276282 -0.304771 0.012110 -0.264536 0.517416 -0.069837 0.219240 -0.268338 -0.036816 0.318911 -0.071915 0.184122 0.059136 -0.231364 0.439788 -0.310061 0.358125 -0.345664 0.383922 0.376523 -0.082858 0.101982 0.355272 -0.160921 -0.184395 0.466633 0.158282 0.337947 0.199033 0.191217 -0.033015 0.064983 0.040859 -0.155054 -0.040773 -0.424107 -0.055768 -0.629115 0.239366 0.104323 -0.244090 -0.010483 -0.135516 0.029683 0.101638 -0.062722 0.065363 -0.037113 -0.024841 0.116107 -0.217614 0.000054 -0.284506 -0.278643 0.087408 -0.272900 -0.193108 -0.271314 0.228523 0.008996 -0.244695 -0.159697 -0.147718 -0.109364 -0.092932 -0.299312 0.246097 -0.057795 0.364031 0.114565 0.182475 -0.152127 0.045670 0.368311 -0.368982 0.655463 -0.306508 -0.080169 -0.092824 -0.096141 0.257335 -0.281523 -0.242968 0.535233 
1751 0.165890 0.204658 0.355531 -0.349156 -0.468933 -0.086336 0.093808 0.081875 -0.219351 -0.026666 0.103171 0.053008 0.282787 0.042425 -0.441186 -0.213380 -0.123161 0.332924 -0.286439 -0.119160 0.281586 0.394213 -0.295663 -0.311032 -0.005743 -0.126317 -0.080160 -0.044625 -0.069134 0.196809 -0.371461 0.200902 0.237889 -0.145679 0.179862 0.289671 0.218865 -0.045394 -0.137625 -0.054211 -0.512588 -0.050907 0.136366 0.084087 -0.409685 0.143653 -0.066969 -0.055358 0.068110 -0.211475 0.390309 -0.461030 0.153628 0.148748 0.394126 0.031877 0.041302 -0.008278 -0.011246 0.740042 0.141744 -0.020175 0.232348 0.295861 0.274826 -0.337086 0.155023 -0.003468 0.542650 0.108582 0.279566 -0.033112 0.341645 0.181844 0.137043 -0.003189 0.212895 -0.075572 -0.260756 -0.049607 0.059602 -0.482439 -0.000371 -0.213925 -0.195156 -0.070457 0.058913 0.238150 0.315645 0.401983 -0.157358 0.263023 -0.079739 0.101124 0.020802 0.277115 -0.113778 -0.450962 -0.155587 0.047903 
7 -0.406604 -0.822464 1.938727 -0.970466 -0.627992 -0.946485 -0.435563 -0.880766 1.337537 2.541403 1.656259 -0.770111 -0.617621 -1.148277 -0.665200 0.445217 -0.769609 0.870158 -0.717727 0.395466 -1.967647 0.881791 0.469490 -0.407906 -1.023980 -0.919915 -0.411790 -1.190184 1.357381 -0.455705 0.212258 -0.278345 0.272770 0.644900 0.435038 -0.056116 -0.248150 0.576101 0.279166 -1.033431 0.298207 0.105313 0.260233 -0.209958 -0.287202 -1.150786 0.939178 2.115969 0.046816 0.996425 0.379397 1.265342 1.606706 1.128955 1.663695 0.857580 0.778591 1.915730 -1.886992 1.857099 0.512027 -0.979052 1.262184 0.159859 1.176829 1.350422 0.373493 0.114916 0.400449 0.221237 -1.028063 -1.720177 0.194245 -0.087043 0.630598 -0.491725 1.756290 0.637337 -0.844595 -1.250788 -0.372465 0.314770 -0.086973 -1.376349 0.611526 -0.252499 0.172236 -1.088627 0.268972 0.809976 0.573765 0.012957 -0.894652 0.884867 0.348470 0.518161 0.649152 0.816710 -2.517043 -1.153611 
674 0.195365 0.004100 -0.044992 0.197831 0.076881 0.132507 -0.264985 -0.102230 -0.205737 -0.195693 -0.066300 0.085527 0.107404 0.290507 -0.192019 0.127101 -0.287236 0.081899 0.117236 0.274840 0.126770 0.140413 -0.035950 0.051679 -0.116321 -0.133742 0.092397 0.118362 0.029479 -0.087065 0.210645 0.123879 0.112956 -0.166448 -0.036635 0.025037 -0.049352 -0.035811 -0.205678 0.217137 -0.173248 -0.003853 -0.081322 0.013962 0.055526 -0.178102 -0.016912 0.074692 0.083240 0.004911 0.025230 -0.042261 0.059909 0.120270 -0.121236 0.070277 -0.158093 -0.079818 -0.073122 0.035588 0.181806 0.025319 -0.200747 0.110366 -0.038368 -0.006727 0.001692 -0.167421 0.215261 -0.190509 -0.403101 -0.036623 0.098413 -0.055735 0.213553 -0.222933 -0.015760 -0.322040 0.158524 -0.230913 -0.142175 0.352472 0.150283 -0.059640 0.105152 0.074423 -0.041044 0.139252 0.068366 -0.077343 -0.130116 0.010181 0.269553 0.154415 0.187181 -0.191387 -0.049511 -0.260526 -0.026537 -0.047113 
1408 -0.074310 -1.878557 2.550139 -0.599437 -0.416316 -0.828820 -1.612483 -1.785113 2.053050 3.710773 2.501060 -1.544474 -1.359420 -1.192439 -1.158397 1.177224 -1.691011 1.300151 -0.450791 2.085797 -3.046186 1.221907 1.100050 -0.123685 -2.147267 -1.608598 -0.218949 -2.045637 2.168407 -1.120217 1.131275 -0.331520 0.454728 0.741550 1.050191 -0.227229 -0.967895 1.005215 0.192386 -1.050322 1.123918 0.363955 0.004983 -0.696772 0.016445 -2.707133 1.774431 3.561261 0.015574 2.029179 0.215934 2.657731 2.928800 2.102914 1.979528 1.638690 0.893696 3.030369 -3.510993 2.177520 1.036114 -1.346885 1.056311 0.243712 2.012339 3.172971 0.461601 -0.042051 0.563966 -0.212091 -3.465544 -2.977367 0.117889 -0.585615 1.427379 -1.652878 2.678902 0.465678 -0.455277 -2.739860 -1.160063 1.933053 0.374832 -2.309167 1.578854 -0.157617 0.335081 -1.875705 0.276930 0.839635 0.853062 -0.442981 -0.458753 2.034343 0.985905 0.286716 0.509611 0.931769 -4.112021 -2.069861 
736 -0.223115 0.095256 0.139189 -0.193551 0.204091 0.160717 -0.145877 0.157419 -0.099966 0.362046 0.382131 0.477864 0.232228 0.298136 0.012860 -0.021306 -0.229074 -0.075023 -0.046949 -0.173067 0.471200 -0.003912 -0.154050 -0.004661 0.145384 -0.075605 0.149151 0.094384 0.130417 0.426524 -0.306342 -0.012574 0.275794 0.107952 -0.092685 -0.050291 0.047162 -0.154646 0.045412 -0.053981 0.080761 -0.032208 -0.020398 -0.030897 -0.508801 0.099142 0.146578 -0.281475 0.485687 -0.178571 -0.104210 -0.229870 0.184388 -0.249804 -0.146954 -0.005060 0.208893 -0.032522 -0.152949 -0.142482 0.401305 0.199925 -0.072639 -0.155161 -0.123996 -0.022270 -0.152776 0.086671 0.499193 -0.257151 -0.103044 -0.047411 -0.167158 0.071223 0.584435 0.013291 0.040822 -0.070664 -0.070062 0.140831 -0.275720 -0.561065 -0.104899 0.070709 0.461761 0.212709 0.191656 -0.388935 0.249751 0.041030 -0.449233 0.391284 -0.199879 0.331274 -0.274284 0.191769 -0.027879 0.338766 -0.063919 -0.249350 
1678 0.343076 -0.003346 -0.004236 -0.192802 0.072427 -0.147195 0.491813 0.050779 0.099719 -0.299023 0.105572 -0.054646 -0.110842 0.071445 -0.342873 -0.214456 0.143622 0.018281 0.045939 -0.211447 0.402229 0.171550 0.109723 -0.370067 -0.026851 -0.036156 -0.149639 -0.234991 -0.046178 -0.478728 -0.253858 -0.209384 -0.118664 -0.277031 -0.139011 0.100980 0.134327 -0.073085 0.125348 -0.217914 -0.029947 -0.133942 -0.156090 -0.080006 -0.190429 0.271251 -0.073793 -0.127254 0.157138 -0.372077 -0.121321 -0.128200 -0.289997 0.013695 0.102143 -0.091982 0.053449 -0.133421 -0.065980 0.090659 0.130230 0.080221 0.213044 -0.050192 0.064123 -0.199618 -0.039680 -0.150126 0.481899 0.042307 -0.046334 -0.086906 -0.026853 -0.231341 0.016050 -0.052115 0.069239 0.063044 -0.181432 -0.170425 0.232179 0.006233 0.057832 -0.316060 0.038847 -0.284142 -0.157595 0.264757 0.170098 0.062210 -0.235241 -0.072697 0.110666 0.301701 0.250070 0.121905 0.018386 -0.064288 -0.237110 -0.047254 
2137 0.432051 0.125498 0.057454 -0.328471 0.150624 -0.265106 0.481762 -0.063109 0.131899 -0.357125 0.175319 0.085081 -0.132565 0.110728 -0.490995 -0.333163 0.233646 0.036959 0.149673 -0.332709 0.464181 0.113982 0.274402 -0.503669 -0.045354 0.086027 -0.093667 -0.316274 0.084223 -0.592397 -0.106016 -0.166655 -0.034093 -0.275428 -0.144711 0.139273 0.193281 -0.022733 0.127004 -0.366475 0.002516 -0.142929 -0.291047 -0.037604 -0.261558 0.430463 -0.072183 -0.193425 0.372075 -0.456833 -0.059115 -0.178335 -0.405256 0.000419 0.080020 0.084094 0.141236 -0.260127 -0.080946 0.161450 0.314423 0.170023 0.157089 0.051369 0.000433 -0.101242 -0.060507 -0.144662 0.463861 0.056089 -0.064733 -0.084403 0.066913 -0.314217 0.152425 0.085859 0.116493 -0.120973 -0.202767 -0.133412 0.206114 0.006499 0.102243 -0.408503 0.080470 -0.174506 -0.096927 0.172663 0.310129 0.154477 -0.367722 0.010555 -0.060975 0.314529 0.192622 0.187199 0.134067 0.027574 -0.358618 -0.261976 
1361 0.148381 0.101669 0.064239 -0.279913 -0.211191 -0.128882 0.262946 0.052714 0.304298 -0.272579 0.106431 -0.328303 -0.046892 -0.063998 0.199932 0.146629 0.193348 -0.204693 0.004519 0.239969 0.166817 0.343914 -0.127030 0.206176 -0.051665 0.222887 0.094078 -0.262932 0.029839 0.274594 0.045496 0.019298 -0.206213 0.277315 -0.176074 0.165412 -0.111383 0.005269 -0.165268 -0.168997 -0.241169 0.109899 0.154622 -0.115907 -0.009686 0.031046 -0.141320 -0.019775 0.368029 0.121589 -0.024187 0.001477 -0.070029 -0.019197 -0.200385 -0.082020 -0.130096 -0.077913 -0.104112 -0.070099 0.049969 0.295875 -0.357952 -0.180560 0.177954 0.024935 -0.138993 0.128222 0.213396 0.100756 0.045240 0.386870 0.262972 0.072141 0.218025 -0.174644 0.114961 -0.108209 0.210683 -0.086994 0.318920 0.078512 0.038538 0.282524 0.195437 0.021462 0.070512 -0.199242 0.047422 0.179389 0.304412 -0.324562 0.226941 -0.142809 -0.001564 0.097364 0.000210 0.118697 0.312526 -0.044119 
1092 0.255382 0.034984 0.029761 -0.314897 -0.235384 -0.002974 0.204853 0.026095 0.324530 -0.049513 -0.018213 -0.290474 0.252117 -0.002928 0.166397 -0.140599 0.373608 -0.159426 -0.052949 0.285590 0.247717 0.270467 -0.119479 0.244520 -0.019566 0.419149 -0.001419 -0.257061 0.073146 0.127817 0.025922 0.091072 -0.288051 0.392084 0.052726 -0.015366 -0.126215 -0.222857 -0.084046 -0.147505 -0.190194 0.101846 0.233930 -0.010347 -0.031404 0.019553 0.087641 -0.031193 0.332338 0.070793 0.036188 0.125743 -0.209406 -0.239369 -0.319171 0.069207 -0.105454 -0.209083 -0.152582 0.173814 0.086118 0.228398 -0.440853 0.128658 0.128231 -0.036082 -0.292708 0.242271 0.178360 0.120740 -0.045325 0.346577 0.412810 0.033855 0.418970 -0.204641 -0.000535 -0.341461 0.158475 -0.176979 0.323431 -0.053377 -0.002603 0.213740 0.153455 0.032166 0.291101 -0.439429 -0.040758 0.187378 0.036137 -0.416765 0.119583 -0.314399 0.003915 0.245695 0.161002 0.178994 0.167271 -0.065417 
565 0.321395 -0.142176 -0.113704 -0.062013 -0.003398 0.382085 0.102888 -0.068438 -0.017398 0.360310 -0.245555 -0.138667 0.510297 0.149961 0.219176 -0.459415 0.421461 -0.078041 -0.255811 0.250129 0.172996 -0.032229 0.067856 0.324898 0.113301 0.330608 -0.275262 -0.032288 -0.137301 -0.044651 -0.227616 0.149818 -0.344075 0.286145 0.486287 -0.318734 -0.133623 -0.452583 0.124673 0.085118 0.034162 0.073281 0.311521 0.281477 0.116538 -0.053036 0.306169 -0.079083 -0.102295 -0.084217 0.046378 0.492087 -0.259114 -0.451845 -0.223017 0.152571 -0.111882 -0.360717 -0.072412 0.265523 -0.079804 -0.058247 -0.206194 0.385084 -0.038369 -0.158127 -0.354383 0.212579 -0.045328 0.042408 -0.195285 -0.011624 0.335571 0.000514 0.348073 -0.134781 -0.192757 -0.375826 0.080290 -0.260758 0.111445 -0.157785 0.030103 0.091287 -0.015492 -0.157214 0.193267 -0.457889 -0.311826 -0.095036 -0.398540 -0.530347 0.055767 -0.313888 0.093138 0.311934 0.062860 -0.036583 -0.182244 0.128590 
1374 0.073357 0.163280 -0.010103 -0.328979 -0.183930 -0.229107 0.017707 0.098050 0.042826 -0.216067 -0.012421 -0.203191 0.057291 0.199642 0.190232 -0.267289 -0.081249 -0.140025 -0.168478 0.258758 -0.043252 0.314949 -0.277458 0.253676 0.306530 -0.009275 0.007392 -0.276062 0.110408 0.183193 0.168195 0.079912 -0.113764 0.278232 -0.104959 -0.000017 -0.200717 -0.046717 -0.148074 -0.043866 -0.245082 0.228404 -0.148823 -0.228326 -0.195173 0.069829 -0.239500 -0.001786 0.379145 0.252762 0.084069 -0.128865 -0.160100 0.092173 -0.510379 0.158489 0.026797 0.153338 -0.089864 0.137933 0.002332 0.269760 -0.141655 -0.205393 -0.139029 -0.002971 -0.038747 -0.154547 0.151088 0.123643 -0.143084 0.083698 0.189457 -0.224229 0.355462 -0.245400 0.176600 -0.141326 -0.186813 -0.057889 0.304948 0.275192 0.286386 0.060408 0.045943 0.094307 -0.096228 -0.069636 0.076531 0.062833 0.097618 -0.232531 0.238534 0.159923 0.104056 -0.261872 0.357452 -0.017506 0.581486 0.033197 
1272 -0.576817 -1.142327 2.427004 -1.555754 -0.914083 -1.413500 -0.609296 -1.092658 2.178695 3.201882 2.056009 -1.587318 -1.065241 -1.365837 -0.266237 0.058159 -0.735481 0.574918 -1.085763 1.129530 -2.939700 0.857142 0.325498 0.014415 -0.631066 -1.193890 -0.284927 -1.903411 1.712142 -0.316535 0.975157 -0.278603 -0.249156 1.319599 0.716845 -0.486437 -1.152802 0.584180 0.432107 -1.180590 0.842452 0.727841 -0.137990 -0.731709 -0.223634 -1.480262 0.904411 2.706650 0.677433 1.668658 0.268722 2.062351 1.540160 1.540291 0.879330 1.202934 1.213732 2.483062 -2.687357 1.919180 0.209979 -0.583554 1.130944 -0.503300 1.338063 2.160074 0.340686 -0.100909 -0.039714 0.272058 -1.939413 -2.445505 0.343738 -0.831646 1.155428 -1.226126 2.356083 0.455290 -1.036454 -1.835260 -0.161101 1.480057 0.317865 -1.757999 1.026146 -0.297258 0.368226 -1.942405 0.319697 0.881878 0.765791 -0.932694 -0.630724 1.552574 0.654612 0.211396 1.386961 1.383447 -2.316898 -1.633231 
164 -0.032078 -0.015187 -0.143058 0.489199 -0.360047 -0.088984 -0.088654 -0.130295 0.040724 -0.342816 -0.075309 0.078044 0.330811 -0.399120 -0.207435 0.079270 -0.061031 -0.081490 0.278903 -0.075329 -0.073718 0.036657 0.315215 0.152708 0.061069 -0.064670 -0.400707 0.169360 0.231597 -0.211991 0.110244 -0.139537 -0.046363 -0.172514 -0.225493 -0.067738 0.125974 -0.014724 -0.379060 0.036335 -0.031856 0.264816 0.151335 0.122304 -0.150642 -0.250145 -0.058979 -0.199062 0.202851 0.047416 0.235709 0.167086 0.004248 -0.042375 -0.207380 -0.216994 -0.010032 0.011358 -0.026773 0.050968 -0.219199 -0.080458 0.136710 0.106392 -0.066644 -0.005182 0.043383 -0.336513 0.062861 -0.321867 0.168691 0.103096 -0.017772 -0.074548 0.197585 0.081513 0.088084 0.111651 0.237829 0.124109 -0.116504 -0.019988 0.118739 0.149886 0.157301 -0.121890 -0.097515 -0.208610 0.246142 -0.046502 -0.225578 -0.176282 0.267429 0.077076 -0.137235 0.281503 0.021805 -0.135739 0.126095 -0.084870 
163 0.032165 0.201526 -0.226412 0.431389 -0.323320 -0.303953 0.016918 -0.220266 0.086833 -0.235940 0.013689 -0.066513 0.369110 -0.232587 -0.589923 -0.205513 -0.241264 -0.026533 0.228237 -0.256884 0.044506 0.075484 0.322611 0.151960 0.019632 0.207952 -0.347912 0.350644 0.336682 -0.243937 0.222794 -0.341171 0.031760 0.066318 0.036663 0.168228 0.432178 0.062940 -0.263239 0.260519 -0.154188 0.370891 0.067280 0.048949 -0.169812 -0.024128 -0.331622 0.004616 0.356125 0.079866 0.203304 -0.058552 -0.306498 0.062552 -0.505472 0.052142 -0.059114 0.104902 -0.217359 -0.043499 0.016440 -0.020848 0.310610 0.267950 -0.094080 0.180619 -0.072008 -0.268977 0.095085 -0.238742 0.198890 0.088702 0.057283 0.121162 0.193532 0.111159 0.422835 -0.107091 0.153170 0.144371 -0.045325 -0.402904 0.068360 0.288910 0.130386 -0.009447 0.361848 -0.215034 0.490047 0.182112 -0.461125 0.016279 -0.009194 -0.046021 -0.230152 0.400294 0.090437 -0.044676 -0.180872 -0.264572 
1441 -0.077503 -0.039821 -0.091535 0.681779 -0.456892 -0.117969 -0.159297 -0.247302 0.065916 -0.464338 -0.116336 0.175802 0.454285 -0.465713 -0.246034 0.207039 -0.101022 -0.066939 0.331039 -0.107033 -0.116197 0.006137 0.462152 0.127036 0.083021 -0.073255 -0.433994 0.153532 0.321950 -0.269617 0.216343 -0.238050 -0.028587 -0.240340 -0.302934 0.019251 0.163253 -0.105946 -0.510722 0.008740 0.070200 0.384946 0.140045 0.159532 -0.244127 -0.259317 -0.003076 -0.250700 0.276625 0.152270 0.379218 0.225386 0.120706 -0.105664 -0.260776 -0.293582 -0.073240 0.061415 0.033558 0.236526 -0.194469 -0.120579 0.127267 0.090234 -0.076951 -0.107805 0.079561 -0.391858 0.122371 -0.348670 0.213941 0.137276 0.035390 -0.161894 0.287757 0.055349 0.129292 0.025251 0.314978 0.166095 -0.165558 0.023118 0.039481 0.141276 0.274853 -0.151836 -0.103901 -0.204938 0.289902 -0.160001 -0.392725 -0.239743 0.300749 0.080201 -0.177070 0.419266 0.021391 -0.215701 0.071123 -0.164617 
